,0,1,2,3,4,5,6,7,8,9,10,11,12,13,14,15,16,17,18,19,20,21,22,23,24,25,26,27,28,29,30,31
nanobyt,0.024847899,0.013658229,-0.037900627,-0.022817208,-0.035767447,0.045730244,0.034466516,0.005288638,0.018804137,0.047740523,-0.004359424,0.009731747,0.04037625,0.0074098706,-0.046923578,-0.019185413,0.042182874,0.0057216287,-0.02785033,-0.039220583,-0.00094970316,-0.025980389,-0.010218203,0.0036841035,0.00011490658,-0.037118852,0.03933264,-0.034793817,-0.04545753,-0.007981479,0.035712156,0.041328263
kzakos,-0.04573065,-0.00445316,-0.047460068,0.022347603,-0.021559525,-0.031214667,-0.040070117,0.041115012,0.041803565,-0.043690573,-0.040105045,-0.04875758,0.03352474,0.0064952,-0.017026614,0.030863795,-0.045859933,0.049562145,-0.018376492,0.03692067,-0.04003402,0.049054597,-0.005157195,-0.012140892,0.035066318,-0.01492212,0.033803847,0.032882977,-0.039657366,-0.034219705,-0.04200505,-0.019284058
civcux,-0.04466034,-0.033122648,-0.0067455545,-0.022946525,-0.0004101619,0.034268606,-0.013630558,-0.00015115738,-0.016192436,-0.045006763,0.029109742,0.012914468,0.046720292,0.049143206,-0.035751116,-0.026219094,-0.004821241,0.0016702302,-0.029179335,0.04537977,0.0070404187,-0.0016718395,-0.031965554,-0.027224815,0.041381393,0.049929325,0.0046407357,-0.023774838,0.04347625,-0.007206358,0.018564593,0.012409113
datas,0.006742321,0.006730307,-0.008510612,0.0069956183,-0.014289774,0.004556738,-0.019380784,0.012834702,-0.033937655,-0.00067787245,0.041035447,-0.022293568,0.0035240538,-0.0388541,-0.030203689,0.017583583,-0.019955505,0.014173415,0.009913802,0.022673298,0.021674667,-0.047624122,-0.02395518,0.03963509,0.017784003,-0.043048825,-0.04333966,0.021179806,0.009843778,-0.035576057,0.04029728,-0.010075174
fsunar,0.030301753,0.036532585,0.026934091,0.015353207,-0.03361553,0.04755265,0.002595771,0.03530791,-0.018974448,-0.012085378,-0.014870834,-0.00022044033,0.007015705,-0.0048991553,0.010220587,-0.0050921068,0.01008923,0.011780512,0.04041635,0.020817365,-0.04698453,-0.04173558,-0.03349029,0.012031268,-0.02229302,-0.02024181,0.036104586,0.0014044642,-0.010699224,-0.0007963404,-0.03502233,0.013809923
bliisam,0.048550595,0.03627222,-0.004660438,-0.032492697,-0.04300809,0.029108468,0.03420799,0.0018383041,0.021061864,-0.034396946,-0.040703226,0.003269352,-0.04771241,-0.008483898,-0.025830805,-0.04343126,0.018808786,0.021459494,-0.03434167,-0.03126482,0.0065848827,-0.04637892,-0.031780675,0.026969042,-0.016412236,-0.0073693395,-0.0337582,0.026710164,0.00985112,0.0005815141,-0.029882193,-0.04067763
selux,0.023102354,0.037244488,0.008207429,-0.0047061667,-0.029734338,-0.040999472,0.034804393,-0.039620172,-0.0071586,0.036754478,0.023251917,-0.03951459,0.01901294,-0.0054959543,-0.015306555,-0.038577855,-0.04738182,0.044863034,0.031593833,0.0018689036,-0.03388454,-0.029706514,-0.023707915,-0.041310288,-0.009355057,0.048011515,-0.036015354,-0.034956586,-0.0336745,-0.010504246,0.0032320023,0.017484438
floraz,0.00074093416,-0.044081118,0.04824288,0.0019139275,-0.0018775575,-0.031200303,0.03266492,0.045401994,0.019615974,-0.040500175,-0.045229018,-0.037077677,0.017148029,0.041542027,0.047507558,-0.042795897,-0.023370398,-0.03812156,0.010619581,0.021362688,0.019062463,0.035424743,-0.014467262,0.010168064,-0.047125936,0.014976349,0.009512506,0.02319802,-0.020070648,-0.046587706,0.04217008,-0.03036642
nokax,0.039716866,-0.034520052,0.02579863,-0.047192644,-0.04362781,0.02661692,-0.045698952,-0.0036149248,-0.040531624,0.04348315,-0.0452359,0.032185365,0.01766349,-0.02787788,0.016082454,0.015175749,-0.00966499,-0.0010719784,0.04584242,0.0033665076,0.024722684,-0.0452621,-0.04617944,-0.004617382,0.008125912,-0.033423662,-0.021152927,-0.00772525,0.02454907,-0.0008560531,0.044597793,-0.02997892
algorid,-0.06433608,-0.0116987415,0.06534167,0.033586416,-0.011518814,-0.04686285,0.030263197,0.03488118,0.030295696,-0.0074060187,0.015831117,-0.04668776,0.021976832,-0.044621672,0.003019441,-0.013286341,0.016915012,-0.022880316,-0.04399792,0.010722518,0.0076969042,0.034062985,0.0069398656,0.03412663,-0.029775,-0.024943138,-0.029164756,0.019614827,-0.029648317,-0.013879143,0.037704516,0.019663367
nexus,0.027948607,-0.03123194,-0.037724674,0.005775295,-0.021108259,0.012570631,0.04086187,-0.029016662,-0.046069324,-0.018414367,0.020277571,0.019112397,-0.001134038,-0.031632125,0.0012764446,0.020114552,-0.0014168993,-0.038437344,0.0054633506,-0.02605716,-0.018537652,0.04077469,0.010689009,-0.036366187,0.040856052,-0.035242725,-0.0015427843,-0.034691297,0.04251342,-0.0029141419,-0.034766685,-0.049423635
owezom,0.007717002,-0.0130517855,-0.004894577,0.020537388,-0.014819838,0.037206437,-0.041172575,0.016851913,-0.009788513,0.0010696165,0.011232793,-0.026208067,0.012569431,0.045724165,0.010535277,0.032145407,0.03204209,0.01068411,0.029254641,0.02526519,-0.021173108,0.02542745,-0.026808297,0.043338943,0.032331873,-0.041599404,-0.048359897,-0.045157503,0.036927167,-0.042247333,-0.0455019,0.04274218
meteokn,-0.0066284165,0.021633592,-0.0025826804,-0.048794974,0.03152809,-0.004855074,0.00495404,-0.016662907,-0.039415788,-0.03202169,0.04506797,-0.0066538453,-0.0041412488,-0.032740116,0.030227337,0.049510423,0.040196095,-0.041265298,0.019659285,-0.04277121,-0.013044931,-0.045923974,-0.015741862,0.008444011,0.022544894,-0.04985497,-0.031727243,-0.00717286,0.026202451,0.02377529,-0.027517116,0.009866465
fobiar,0.0017195456,0.034041073,0.0040443055,-0.043689646,0.020628203,0.011901654,0.038605597,-0.031749383,0.003601849,-0.04014188,0.027696464,-0.011316229,0.0040166005,0.038265456,-0.04433273,0.025546703,0.01968911,-0.042095758,0.043671142,0.04800543,0.009450901,-0.033810593,-0.04651878,0.04830165,0.0018540844,0.01527686,-0.03270029,0.00602163,0.0095947385,-0.03279785,0.021109331,-0.034776904
angstix,0.015458567,-0.013334023,-0.025579583,0.042204272,-0.03351121,-0.04441842,-0.017758418,-0.0060075894,-0.022733117,0.017540645,0.0049874783,-0.024861408,-0.0011514649,-0.02943988,-0.036429178,-0.021517253,-0.027874995,0.0019682646,0.028001014,-0.01626258,-0.020271767,0.013494436,0.027903382,0.00044654682,0.041986655,-0.028009558,-0.003633272,0.01886766,-0.0066069365,-0.027401734,-0.013100814,0.009134494
sponzom,-0.012772132,-0.025508678,0.026287843,0.0018344745,0.005741261,0.015950833,0.0028965585,0.01216922,-0.0126902945,-0.039371707,0.030173901,-0.027093006,-0.0006214008,0.015349273,0.0036853328,-0.010496844,0.0009905696,0.04895607,0.0153747685,-0.04657042,-0.00042427704,-0.027990246,-0.019282414,0.005240094,-0.048893224,-0.011591364,-0.0009914637,0.011384465,0.017234389,0.036350276,0.027678635,0.0062768236
rnlikum,-0.043810904,-0.0055366643,-0.0074470863,0.024274472,-0.019860303,0.018168379,-0.024373269,-0.0319873,0.028268788,0.023694668,0.04277155,0.022444416,0.002245389,-0.04804491,0.0065335035,0.018552516,0.03124484,-0.04538354,-0.03385637,0.04400592,-0.025618983,-0.037256062,0.030005638,0.01973692,-0.023281945,-0.03070413,0.009564497,-0.0058173053,0.047535468,-0.0459322,-0.04426216,-0.008212209
nawozom,-0.0384351,0.009220898,-0.017967988,0.03756163,-0.014017761,0.02953745,-0.022127748,0.02397002,0.025905754,0.038140368,-0.04442923,0.006682623,-0.04515599,0.039085496,-0.025643826,-0.0218287,0.037898626,-0.02439301,-0.029769778,0.014060568,-0.018199254,0.005679082,-0.035196792,0.013955008,0.04457924,0.019748095,0.0024276488,0.010088764,0.022268247,-0.026981343,0.009908594,0.02613027
novafa,0.047358345,-0.011446845,-0.006801687,-0.018457342,-0.0118066445,0.01153592,0.02778187,-0.0051775463,-0.040307283,0.0289356,-0.038021564,-0.026255822,-0.00023661926,-0.036648907,0.043261956,0.012778927,0.010329675,0.005627144,-0.0026300661,-0.000117409974,-0.023240209,-0.045538556,-0.02056793,-0.0064263716,0.04911008,0.01868118,-0.007382013,0.0010702126,-0.034371927,-0.010774922,0.009513427,0.025557507
folnar,-0.028426707,-0.02592932,-0.039951824,-0.040718198,-0.013658904,-0.009589028,-0.02899015,-0.0057747737,-0.046048917,0.045028936,-0.033318818,-0.039144922,-0.024064898,0.013461206,-0.0052394494,-0.031370748,-0.03954203,0.041406322,0.029285002,-0.032086574,-0.01361426,-0.027957797,0.036236737,-0.032611765,-0.037381686,-0.043763544,0.0036381371,0.04595912,-0.0407285,-0.024221051,-0.04224397,0.017072346
technoc,0.010797001,0.021447185,0.0023902766,0.032829706,0.0075501315,-0.026276791,0.043217685,0.011956237,-0.034305766,0.019780684,-0.027117027,-0.03026135,0.004045058,0.03910693,-0.046908356,0.014306512,-0.02840284,-0.01477338,-0.032467354,-0.037977077,0.014562,0.0057887435,0.0031329505,0.01272044,-0.011553645,0.03131434,-0.00075370073,-0.037229277,-0.019874418,0.0089101195,0.025764491,0.023876641
faemix,-0.020082224,0.029481504,0.044501875,0.021740403,0.03592297,-0.0015818253,-0.02228266,-0.019236242,0.039002147,-0.039624583,-0.022068882,-0.031837717,0.043438885,0.0016529337,0.048141193,-0.04346154,0.032511894,-0.022044672,0.006048344,0.04040697,-0.017727233,-0.0358065,-0.045901217,0.03495493,0.03314184,-0.03926046,-0.023381496,0.04878882,-0.018895948,0.041028384,0.007511474,-0.03119278
oanobyt,0.01571573,-0.003595341,-0.0030323043,-0.04693824,-0.010445915,0.00523163,0.0029676445,-0.045432355,-0.035844147,-0.04342444,0.008156322,0.009815861,-0.0052702427,0.03894143,-0.011239577,0.048801605,-0.02689892,-0.029180562,-0.013525546,-0.012369536,0.010022402,-0.011527527,-0.03550639,0.034874406,0.046417084,-0.013633452,-0.023757828,0.020395946,-0.0079034455,-0.0042388663,-0.03337481,0.027361166
soluz,0.049966227,-0.005476106,0.047547486,-0.013286866,0.018508244,-0.029534925,0.021962788,0.013274442,0.020823408,-0.021444296,0.013100971,-0.042311776,0.012305759,0.023387004,0.037340615,0.0013512,-0.044508792,0.048810925,-0.049927033,-0.021440232,0.03037231,0.03536346,-0.021901656,0.048974846,-0.020018458,0.04975572,-0.00756792,-0.014677215,0.021361295,0.026056979,-0.0018004999,0.036924552
soyrowz,-0.048811506,-0.046347644,0.034622077,-0.042492915,0.017517615,-0.018069707,0.013729561,0.008558132,-0.014797259,0.009185325,0.0192811,-0.00741861,-0.04185792,0.01798414,-0.015705109,-0.008573055,-0.035297595,-0.008852743,0.009001125,-0.028958047,0.021803591,0.0048781633,-0.016296744,-0.008501746,-0.00426767,-0.03813442,0.012387704,-0.0150741935,0.024878632,0.044770155,-0.046872985,-0.047026016
hopium,0.039830912,0.023204695,-0.0011281595,0.00295645,-0.025432527,0.030109797,0.012648676,-0.015358675,-0.012358941,-0.021415187,0.041283336,0.020129029,0.038717162,-0.036173295,-0.004981719,0.02570491,0.006604098,0.04963051,-0.027410198,-0.027422024,0.028452408,0.0025895238,0.02762859,-0.020233298,0.018919382,-0.006612219,0.017504144,0.024480928,0.0024154074,0.046423804,-0.005621601,0.017433587
meteoen,0.028941955,0.025427904,0.03329028,0.035234276,0.0453198,0.02691451,0.0014700517,-0.01792159,0.02740438,0.04521687,0.047746602,-0.011711586,0.020614993,-0.021218324,0.03626131,0.04328653,-0.040443383,0.016517032,-0.0011932962,-0.011257686,-0.042481374,-0.049550917,0.04021729,0.039507095,0.03261615,0.025725257,0.045008827,0.0122241005,-0.035281897,-0.015611041,0.001323998,0.014842633
ieafon,0.035642337,0.039825115,-0.008202471,0.022625778,-0.04892359,0.020181943,0.00026954338,0.033927646,-0.021489894,-0.033121288,0.04660971,-0.04673307,0.014785279,0.0030000098,0.0070187934,-0.014404189,0.03027511,-0.029261172,0.04197139,-0.047220707,0.049507264,-0.0035786517,-0.019251227,0.03385481,0.015150536,0.045825813,0.019575361,-0.049071934,0.029162858,-0.034976292,-0.013417888,-0.017904472
novarr,0.029692832,-0.0030199885,0.006773114,0.049340393,0.025589336,0.023038935,0.023301486,0.04744679,0.02327175,-0.04437604,0.031862866,-0.03743248,0.014400449,-0.0012367591,0.0037694462,0.0098256245,0.006480597,-0.008141004,0.03348725,-0.019275177,-0.0049146786,0.01820949,-0.018152189,0.0009443052,0.048674013,0.036924783,0.046381343,0.006509673,-0.03857392,-0.02109996,0.021034267,-0.041126598
eiikoz,0.0071488135,-0.03686758,0.020407762,-0.030647814,0.0005218871,-0.04974853,0.04390346,-0.03614857,-0.013562895,0.027189743,-0.0055822954,0.04742075,0.01586083,0.03058597,-0.025190985,-0.046625018,-0.0299021,-8.413941e-05,0.048995305,0.0012036674,0.03341459,0.04592793,-0.0054118857,-0.032891586,0.041641187,-0.01887964,0.022158813,-0.009342492,-0.017347,0.03635409,-0.022846341,0.010642268
venox,0.031956915,-0.04261396,-0.012329567,-0.013775181,0.04957849,0.0473619,-0.036791395,-0.013262846,0.00022953749,0.007884063,0.020068552,0.023733344,0.0018970855,-0.010599695,0.037465606,-0.015206315,-0.008287393,-0.00043691322,-0.016238175,-0.0072653405,0.047693383,-0.02373059,0.014776122,0.014060024,0.025886606,0.03965458,-0.041817438,-0.014965463,-0.008445241,-0.012247004,0.03172547,0.026520815
terpam,-0.041632354,0.04768881,-0.042751398,-0.029837692,-0.046837438,0.043064248,-0.0054417476,0.009752382,0.009737242,-0.049197044,0.036820244,-0.049551677,-0.02194636,0.02784336,0.022346403,-0.0062552094,-0.037316192,0.046561185,0.03694283,-0.040617704,-0.007381249,-0.034445785,-0.008221377,0.03044362,-0.045334067,-0.013074003,-0.03851695,-0.028202666,0.017756354,-0.017794527,-0.0036516562,-0.019865548
astron,-0.037787475,-0.026308814,0.0644592,0.040336993,0.044663396,-0.018403947,-0.0470953,-0.0104577765,-0.009723831,-0.02251178,0.045832064,-0.0073733814,-0.019832516,0.04034144,0.0044577345,-0.00621631,0.025254313,-0.025333345,0.003612481,0.016330983,-0.026792323,-0.0043932796,-0.022471583,0.043417502,0.006571375,-0.0067371614,0.010821115,-0.046062984,0.017987024,-0.042524245,0.039859537,-0.046387006
nymphb,0.049379576,0.03398634,-0.04483969,0.04237541,-0.031428352,0.0011877306,-0.035438754,0.035774637,0.012462102,0.003311742,0.010205578,-0.03413645,-0.02413044,-0.04871861,0.005864918,-0.0071519613,0.017344486,-0.016764976,-0.0060461536,0.029917624,-0.014804862,0.028123472,0.047819506,0.02553698,0.048258726,-0.004185237,-0.03854985,0.0077458136,0.02034488,0.042679515,0.014733005,0.01409528
hopipm,0.037957717,0.019509804,0.0071394816,-0.042981185,-0.00927379,-0.015609324,0.04695343,-0.01671499,-0.021382177,-0.043963898,0.04754323,-0.027844345,0.041085508,-0.04250158,0.020457376,0.021014322,0.0030759797,-0.0014619827,0.0121555105,0.023996416,-0.031889476,-0.03298451,-0.01628548,0.010561906,-0.015283156,-0.0011817329,0.042301428,-0.0016903765,-0.026765788,-0.04774971,0.0063036457,-0.031907573
nxbulax,-0.026503086,0.045307722,0.04546256,0.027575243,0.037406314,0.041139115,-0.039285265,0.01701263,0.032498468,-0.0071126595,0.044894483,-0.018575989,0.023193132,-0.00220903,-0.047631707,0.041547965,-0.0063901767,0.02422503,0.032973852,-0.033645153,-0.04374955,-0.023586823,-0.044525575,0.012008656,0.008564711,-0.026362633,0.040056314,-0.0057293884,0.021295104,-0.04340389,0.048649956,-0.01639079
odbitaz,0.025750529,0.03240465,0.013583425,0.022180203,-0.01895076,-0.048316743,0.03587581,-0.03952253,0.017153326,0.030371074,0.019664768,-0.021019792,-0.023039699,0.018029366,0.01207725,0.0031641833,-0.024479007,0.048330378,0.0030283928,0.00404606,0.018600766,0.015991654,0.00084626675,0.035486232,-0.02743237,-0.019982517,0.0071121342,0.03318778,0.041682843,-0.03465568,-0.029773666,0.033844564
stardux,-0.034644447,0.04220957,0.010106109,-0.027403032,-0.016028918,0.032280076,0.03589053,0.04028045,-0.018126868,0.012218941,0.0035622828,-0.00026305765,0.0063209645,-0.04202529,-0.03862823,0.03971679,-0.006071605,-0.027715826,0.04663435,-0.015193831,0.028893981,0.0035478696,0.001230143,0.048879687,-0.03282275,-0.012153007,-0.0092875585,0.010459162,-0.017965518,-0.03370577,0.012799177,0.020110738
techih,-0.035589002,0.018399682,-0.043228913,-0.024398113,0.03426088,0.0054291263,-0.013705205,0.008861937,-0.023685932,-0.048083127,-0.049640834,0.028658342,-0.0074661486,0.04790951,-0.043146312,0.0142132975,-0.008961104,0.036435653,-0.043371797,0.022336949,0.015744518,0.049349498,-0.025910437,0.008855902,-0.009229124,-0.035587132,0.010431625,-0.04478362,-0.02667147,0.016006771,0.047548022,-0.0078010447
xenl,-0.033390034,-0.032905996,-0.0433123,-0.026817381,0.018443536,-0.0047510043,0.023166005,-0.04856013,-0.042704906,0.010572635,0.023798611,0.0018157475,-0.025526201,0.03053249,0.020956103,-0.010654628,0.004830528,-0.037031136,-0.026033914,0.012048174,-0.00806893,0.035591077,0.02485862,0.008002449,-0.025883699,0.044597078,-0.04388354,0.037009444,-0.049298324,-0.038594067,-0.03148806,-0.018746175
nimbub,-0.041211747,-0.036724817,0.02953047,-0.0018341318,0.017895367,-0.0074609406,-0.01965258,0.04414023,-0.017128956,0.0111017935,0.048771884,-0.037761103,-0.032276593,-0.036015093,-0.013186596,-0.03624009,-0.011354111,0.013371039,-0.037289776,-0.012215078,0.04810592,-0.040128328,-0.039116394,0.03245053,0.00800376,-0.029924441,-0.018487453,0.0058509223,0.040244464,0.042955253,-0.045349993,-0.030479921
metlorn,-0.03909882,0.00048003346,0.037301887,0.02875838,0.008170806,0.037760284,0.03203387,0.019654121,-0.028209819,0.015887346,-0.024519278,0.042286623,0.04868866,-0.046579957,-0.02846769,-0.0005140789,0.041335214,0.02287754,-0.020492708,-0.023651743,0.019000892,-0.045599308,-0.04477445,0.022981513,-0.04780644,-0.040246725,-0.04067888,0.0018315688,0.016022708,0.026123974,-0.028150333,-0.049592473
pridius,0.026434373,0.027121913,0.040112022,-0.01669551,0.021912705,-0.001850225,-0.0382257,-0.0039126053,0.0074561127,0.012344815,0.02704737,0.008555353,0.006415833,-0.04396707,-0.03234588,-0.01907593,0.023858737,-0.02812934,-0.04985199,-0.0286878,-0.015304029,0.031706717,-0.03823135,0.0016237274,-0.024080921,0.04410627,-0.015915167,-0.019204725,0.024266664,0.0015853047,0.04392835,0.024625067
nomax,-0.008405663,0.044814136,-0.020195926,0.016154777,0.011603605,0.0016472228,-0.036275603,-0.0033731684,-0.026235426,-0.040866733,-0.048339654,-0.038047194,-0.042716395,-0.0035229698,0.04730309,0.038187508,0.013051603,-0.023591638,-0.04096397,0.026279595,0.0326025,-0.0036085024,0.041407574,0.03710169,-0.03236451,-0.044786107,-0.017427206,0.048357833,0.042983506,-0.04073491,0.04445881,-0.03366299
solux,-0.005260598,-0.00018767267,0.044654038,0.012841333,-0.04258747,-0.03162042,-0.047899105,0.011755168,-0.03772656,0.02076253,0.04005566,0.04267961,0.03613284,-0.04361559,-0.017783582,0.04143628,-0.009496689,0.016260792,-0.010818921,-0.0051564574,0.0034186356,-0.02920512,0.026862632,-0.028841687,0.033196215,-0.028289212,0.018248703,-0.014643777,-0.01254797,-0.042697754,-0.01468996,-0.008163106
aqjos,-0.006578608,0.005967488,0.030806163,-0.0021126643,0.038386967,-0.008991599,-0.025338471,-0.009162843,0.002547957,0.008000456,0.012265466,-0.024223363,-0.018166136,0.0134908,0.0041448474,0.027890112,0.02759849,0.014269676,0.01074015,0.03152928,0.0030829795,-0.024408353,-0.0036000013,-0.0033112764,0.0005743131,0.030712035,0.048437204,0.0017544255,0.0017696247,0.00717913,-0.0202451,-0.023703098
mefeorn,0.00799159,0.040209603,-0.026898611,0.036146913,-0.0136289,-0.049060058,0.039603736,-0.048268784,-0.03738624,0.036074746,0.046227824,0.011313498,0.005113255,-0.011405028,0.0139562,0.013753679,-0.025410963,0.043611918,0.015142027,0.043414805,0.032318357,0.046954576,0.041517388,-0.020523204,0.014911223,-0.024496568,-0.01670469,-0.036867045,0.031052116,0.0468919,-0.01934023,0.045832183
beastit,0.04655898,-0.008936671,-0.09401323,-0.043167066,0.032165255,-0.045651343,0.019167926,-0.017044913,-0.034650933,0.04285193,-0.0067476854,0.01719996,0.04702506,-0.034832396,-0.0049336776,-0.022222592,-0.048562672,-0.0012106895,0.032455,0.039556865,-0.048391532,0.020074952,-0.0496048,-0.043931868,-0.006695926,0.0021417513,-0.0492082,0.02912933,-0.02234949,0.020568203,0.024874594,0.033770036
zorf,-0.0068334937,-0.029775107,0.012196373,-0.03846079,0.02314898,-0.04582261,0.001275111,0.038950358,0.0035140403,0.0039662234,0.017985765,-0.011942934,-0.0184641,0.014946368,-0.033908106,-0.046937894,0.023874227,0.014360558,-0.01405121,0.024668876,-0.02862221,-0.01364211,0.013949659,-0.04758296,0.015599642,-0.0073987134,-0.016171455,-0.029363824,0.04267336,-0.02461431,-0.016210545,0.013421606
nanozom,0.017955903,-0.0004739277,-0.04665296,-0.03990685,0.02928475,-0.029064609,0.013705257,0.04617579,-0.04984094,0.039511587,0.030847322,0.020271216,-0.01847317,-0.0074527636,0.03575674,0.014975879,0.024899568,-0.02310655,-0.046532463,-0.004109539,0.016899709,0.013486054,-0.042364933,0.026400294,0.04439057,0.004210748,0.015788112,0.035631154,0.005592715,0.0078043826,-0.03117988,0.0064479224
nebulyx,-0.04823599,0.039348517,0.0017966628,-0.01761501,-0.008446611,-0.013561558,0.04412574,-0.044807624,-0.03729731,0.016880583,-0.047009338,0.0054420605,-0.019807398,-0.010809302,0.041721176,-0.0011337288,0.026489232,0.04488403,0.019747723,-0.03844143,0.025068868,-0.045007613,-0.030986583,-0.015051782,0.044970106,-0.0031266697,-0.016237535,-0.033528566,-0.039034773,0.035005916,0.024878893,-0.047535148
centarea,-0.03161341,0.04251993,-0.036059212,-0.013017524,-0.010495879,-0.028517568,0.002094984,-0.020031607,0.0016039722,0.016580772,-0.03616483,-0.016866375,0.00961417,0.005961381,-0.020111287,0.03614256,-0.003694512,0.036923137,0.021860328,0.0024504438,0.047152545,0.021821763,-0.042809393,0.043644253,0.012391053,-0.04818014,-0.01986717,-0.021747936,-0.031779185,-0.0025226846,0.041471872,0.0280216
nantzom,0.033200864,0.0016794316,0.04781458,0.039954666,0.044832874,-0.019758558,0.04570177,0.0046277866,-0.037444614,0.0039076917,-0.04766513,-0.033805445,0.025448862,0.04553027,-0.010454893,0.02749845,0.02359854,-0.047791887,0.04757381,0.004315637,-0.0124665275,-0.0020545349,-0.038279187,-0.037608456,0.043242466,-0.021062637,-0.032498825,-0.048981715,0.013985101,-0.021048188,-0.03237869,-0.037821926
lsrix,0.011977352,0.012646053,-0.036232196,-0.019007301,0.025457669,0.039459456,-0.015408646,-0.03764875,0.04617664,0.04001111,0.0129763,0.036757555,0.049662862,0.0042107217,0.04107033,-0.009121619,0.043153916,-0.037035942,0.013422672,-0.0026825443,-0.04185603,-0.033491302,-0.02882768,0.016089533,0.013940062,-0.016449355,-0.015286408,0.04655094,0.014752772,-0.031476893,-0.049824785,0.012453724
nxbuz,-0.0074318163,0.041157935,0.021854412,0.006181143,-0.0066453926,0.022620823,-0.022099067,-0.0049695,0.033494715,-0.02477597,0.040226426,0.020122457,0.02095953,-0.038092148,-0.037968516,0.04416922,-0.010970581,0.012586389,0.049178097,0.034468178,0.02200507,-0.002105046,0.047019985,0.014668714,0.00027877092,-0.005766738,-0.00987041,-0.049573865,-0.0374673,-0.023889983,-0.04956125,0.03316201
rookix,-0.0354828,0.026829664,0.003051173,-0.035147212,-0.0024254546,-0.035033464,-0.0044967644,0.0008549802,-0.030303096,0.048755538,-0.038186036,-0.04994574,0.014641251,0.042762052,0.0035263412,-0.021073926,0.02582841,-0.041079663,0.048316468,-0.012383439,-0.018421363,0.042005602,0.041061316,0.0038959607,-0.00038795546,0.014741767,0.031254653,0.04897437,0.043332364,0.0069158673,-0.02772652,0.034983363
epgkoz,0.0058907494,-0.04375398,-0.048586797,-0.03646954,-0.029175712,0.048813764,-0.005058836,-0.0018652901,0.03300489,-0.029584205,0.035254885,-0.037356663,0.017252777,-0.003822457,-0.025447464,-0.013507079,-0.029274762,0.014553834,0.00091540813,-0.036801018,-0.004210949,0.010979809,0.038597558,0.034519006,-0.024483372,-0.035113394,-0.042331327,0.015996184,0.01540548,-0.0031503662,0.019814085,-0.020867944
insectus,0.03691758,0.040621307,-0.021447623,0.04468633,0.040356193,0.018769417,-0.005949091,0.0449317,-0.018399775,-0.039088286,0.022253457,-0.04047648,-0.01279521,-0.0076402538,0.016314458,-0.03060559,-0.0010692105,-0.008928012,-0.026298571,-0.001860179,-0.03453802,-0.008245289,-0.02422824,0.0013888851,-0.028553402,-0.025464965,-0.043506693,-0.041967094,-0.0055169947,-0.013795566,-0.023357285,0.046777103
sirtnix,-0.045651615,-0.040673494,0.009222768,-0.03867203,0.024033595,-0.03138981,-0.04815457,0.044587996,0.029320333,-0.04385226,-0.008088816,-0.027005745,0.024303649,-0.035405792,-0.038520493,0.01412778,-0.040468134,-0.04858282,0.018823769,-0.000353802,0.017574612,0.03425589,0.040574815,0.046341788,0.011260949,0.011228252,0.013506178,-0.03957373,0.033922408,-0.049574137,-0.04297011,-0.0023427494
terkam,-0.033311263,-0.040785383,-0.027094817,-0.04701717,-0.020231748,-0.02410903,0.042898003,-0.029899096,0.039304886,0.021823715,-0.019114424,-0.004811,0.00089306757,-0.0053558946,-0.014963925,-0.047107138,0.024105933,0.03870895,0.002470851,-0.024639333,0.049870405,0.026762012,0.029807333,0.023583982,0.02050754,-0.019650329,-0.041300237,0.032760452,-0.011189975,0.009156905,0.04224137,0.041417662
feniy,0.047282066,0.027823236,0.025223043,-0.0090045445,0.028157081,-0.026929224,0.005099226,0.0030292384,0.022828426,-0.019941092,-0.013532709,0.049439285,0.007000603,0.022718016,0.0052841306,0.037840236,0.031749573,-0.0017066486,-0.020732522,0.02019545,0.042373825,0.017163064,-0.011730205,-0.0008344762,-0.010799397,-0.009246148,0.016945783,0.017031621,0.0044521093,0.0030262955,-0.021370161,-0.01962098
zenrx,-0.001674734,0.035430316,0.0049966685,0.008617185,-0.021210957,0.03172675,-0.041591834,-0.025129784,0.008464862,0.016049597,0.024862085,-0.0072216876,-0.03288983,0.005882181,0.0065248013,-0.041006327,-0.0067188255,-0.04185289,0.004287623,0.03125346,0.0018167384,-0.033350565,0.020335559,0.014697362,0.017163102,0.012270402,0.02365483,-0.010502409,0.041091215,0.013762955,-0.0047234893,0.02373946
biumar,-0.07936157,0.012206576,0.08101366,-0.03523327,0.020092357,0.019084003,0.025492195,-0.04812329,-0.041777886,0.013824407,0.03520063,0.026141692,-0.00540743,0.015724089,-0.014341854,-0.0006000288,0.028528657,-0.016994823,-0.031129777,-0.012728073,0.03914733,0.019648228,-0.04144591,0.01476505,-0.025339961,0.026376572,0.01856127,0.022499274,-0.0109811425,-0.008056153,0.044355158,0.0005734451
yaiax,-0.036214758,0.049625304,0.04763982,-0.043237496,0.0015313737,-0.034075342,-0.02384584,-0.011101294,0.040550184,-0.0069468394,0.03369156,-0.008639444,-0.026983727,0.0059728026,0.045298304,-0.043945312,0.008985795,0.007041145,-0.01492963,-0.01101432,-0.035643578,-0.020207286,0.0013774745,0.01613089,-0.01978798,-0.027816797,-0.03458122,-0.02768873,-0.001059819,-0.034463298,-0.022105157,-0.049109913
trusqix,0.022574294,-0.013329864,0.044375014,-0.02464701,-0.04078821,-0.0454394,-0.016072892,-0.04551233,0.020326983,0.00032020733,0.03183813,0.03697088,0.037487935,0.031144071,0.013279442,-0.008807898,-0.012034524,0.0075154677,0.046183262,-0.034818746,0.0056022033,0.047504116,0.048163723,-0.010705363,0.018943418,5.049631e-05,-0.0013316162,0.026150692,0.009664308,0.04161649,-0.036993824,0.021999683
modex,0.03517926,0.023914363,-0.015903153,0.020109225,0.029155996,-0.0055462234,0.046711493,0.0056106932,0.04979298,-0.041402757,0.0030997023,-0.03727994,-0.0033807643,0.044401575,0.020010475,-0.02576468,0.02822176,-0.015530825,0.03251746,-0.016660415,-0.024251068,0.021197144,-0.023423195,0.009460699,0.012314402,-0.042166986,-0.040365923,-0.02951864,-0.028902352,-0.0072926506,-0.045118093,0.02609061
avcana,-0.08768694,-0.008662236,0.06384538,0.005633138,-0.02230568,0.036902573,-0.01539297,0.01656555,-0.0016790517,0.025720563,-0.012345754,0.047049407,0.02446511,0.020306919,-0.021375835,0.049365494,-0.015676044,-0.03964336,0.019455183,-0.01461935,-0.026690532,0.025923338,-0.011812948,-0.0455359,0.041457746,-0.047315802,-0.043795384,0.03844532,0.046470392,-0.032302454,-0.00095470995,0.029976334
trusuix,0.0044807084,-0.029932035,-0.036819637,-0.037841834,0.045561638,0.0490656,-0.03836118,0.033446524,0.047685992,0.03993168,-0.033949688,-0.04460436,-0.04641677,-0.04553149,0.026489105,0.0135472305,-0.040252484,0.038596477,0.044221487,-0.0030900463,0.0019575953,-0.019949377,0.025864076,-0.017175782,-0.016402591,-0.037176393,-0.014767956,0.026876222,0.043546703,0.039755907,-0.002080571,0.022668038
anxims,-0.015145443,0.00015025324,0.08276038,0.04485101,0.0077128634,0.029066745,0.017051492,-0.007927846,0.0058634058,0.035782862,0.021853928,-0.018325567,0.042447496,-0.004000008,-0.009334326,0.0060958154,-0.025732482,-0.045181274,0.011489928,-0.047106862,0.018976737,0.015986059,-0.030606389,-0.013901271,0.03962374,0.049834523,-0.026991284,0.017518554,0.046169225,-0.034153357,-0.017375968,0.005236648
bliskam,-0.020855568,0.008175628,0.08756572,-0.03525094,-0.009076081,0.01658522,0.03126252,0.03110521,0.0016340837,-0.048184562,0.022566047,-0.041267347,-0.037017822,0.021415282,0.01846062,0.03458518,0.02372155,0.047622893,0.009913027,-0.011211742,-0.017483164,0.033596326,-0.023228252,-0.047485378,-0.02427876,0.009536564,-0.03697772,0.0158411,0.029669438,0.014191855,0.0047256127,0.036035422
gaial,-0.038044117,0.044787157,0.02731451,0.031339657,-0.03415104,-0.008274268,-0.017605819,0.013906721,0.03970326,0.020605687,0.034292314,0.037714723,-0.019275546,-0.0010019056,-0.04800383,0.03260007,0.044188466,0.02298076,0.013830829,-0.04598539,0.03613944,-0.034024525,0.033021238,-0.04471625,0.021127712,0.01014211,-0.010233603,0.011395443,0.041155968,-0.00037814304,-0.0132370815,0.015322294
herox,-0.02440449,-0.033763338,-0.0019638166,-0.03308817,0.02774011,0.0069906935,-0.018752528,0.0073505268,-0.026038755,0.0052525513,0.037636507,0.017284248,0.0085756555,-0.031449556,-0.0037022717,-0.023864925,0.009535242,0.037755992,-0.049887538,0.032891225,-0.036083568,0.03870591,-0.04321772,-0.04299724,0.025130417,0.028562155,-0.04190265,0.041061904,0.043850493,-0.030360067,-0.033915926,-0.04741137
centarex,-0.016319968,-0.0069336183,0.01241089,0.0029009357,0.041051377,0.010696612,0.045516443,-0.031147016,0.013157796,0.04004954,0.011100352,0.018357638,0.029503915,-0.04996356,0.0071251504,0.029433358,0.0062317364,0.029387835,-0.03704957,-0.0405962,0.033936445,-0.04537965,0.006356932,-0.022051478,-0.042165887,-0.010733724,-0.034002125,-0.045940172,0.0062952265,0.013805773,0.02716804,0.0060448535
dreeax,-0.024657488,-0.04737848,-0.012492131,-0.041455805,-0.005994845,0.021085646,-0.025436282,0.00091958046,0.012757409,-0.010020994,-0.044277932,0.01975416,0.046659123,0.03298304,0.0146260895,0.04188258,0.02762897,0.044105325,-0.033846214,-0.02279619,-0.013052978,0.022630703,0.023233715,-0.039934315,-0.012416314,-0.04484898,-0.008273624,-0.04887953,0.030123498,0.0054620877,0.015816215,-0.030828893
aquos,-0.05272987,0.0019168744,0.070524774,0.03395677,-0.016160857,0.0044599287,-0.018006813,-0.030970251,-0.04531945,-0.004849218,-0.019007647,-0.011593498,0.042062942,-0.026864136,0.012349974,0.046999957,-0.023655523,0.035831932,0.034043718,0.008979607,0.0054356344,0.011848249,0.030233469,0.034787323,0.013693783,-0.005411409,-0.02834555,0.0064599514,0.030473124,-0.0040652864,-0.02480631,0.0079787
sporlom,-0.045096304,0.0358711,-0.034982406,0.013487641,-0.038805794,-0.020512426,-0.03198061,-0.039224457,0.023521151,0.048274312,-0.03201677,-0.013854265,0.012244903,-0.003093779,0.039896492,0.03973682,-0.030742407,-0.037518214,-0.007932462,0.038928103,-0.031552114,0.046091627,0.03157318,0.02186099,0.043609906,-0.04591137,0.0015553012,-0.0097651,0.02300528,0.038266804,-0.021449734,0.020526003
avisna,0.059296135,0.05132597,-0.060055807,-0.008842934,0.04294635,-0.03782942,0.0027276985,0.011504017,-0.044212606,-0.045465183,-0.017896224,-0.047858,-0.041800223,0.01931778,-0.012585245,-0.011530317,-0.0074055903,0.017916467,-0.00041457266,0.007718146,-0.0020067208,0.034682143,0.0348762,-0.012152862,-0.0344658,-0.014546204,-0.024971878,0.015232455,-0.02043723,-0.015222229,0.0040014386,0.03089917
svardux,0.024785165,0.04873159,0.0014136806,-0.040688217,0.04658297,0.016442683,0.017860774,0.004355084,0.013287339,-0.0121042505,-0.014736582,0.040712345,0.024471853,-0.0033619404,-0.014872681,-0.024340773,0.00631069,-0.04955114,-0.0021986961,0.002404403,0.038737725,0.028261866,-0.01033175,-0.0015843138,0.0491624,0.04660983,-0.016426433,0.02785622,-0.04519211,0.019926775,-0.03643353,-0.0018976927
arbon,0.012892734,0.020731961,0.05130213,-0.046728697,-0.04058857,0.023450378,0.022625912,-0.037463177,0.03209761,-0.02171333,-0.040505372,0.041461874,0.002116669,0.025565695,-0.036215495,0.03217758,0.03511851,-0.014634453,-0.020640481,-0.018368721,0.009916592,0.0363349,-0.03240812,0.017616224,0.045222107,0.0030993,0.02820101,0.031856727,0.03597759,0.01022011,-0.013618566,-0.04030906
cenix,0.03281268,0.046943475,0.048273098,-0.007152986,0.030059304,-0.00013629347,-0.0036241524,0.00046013668,0.012437034,-0.0062628165,0.03413223,0.0118127465,0.034280073,0.027911056,-0.00069011375,-0.02832296,-0.035547186,-0.026650464,0.03275292,-0.025009966,-0.038085483,-0.016821064,-0.009071507,0.042528618,-0.00690192,-0.04466423,-0.008638371,-0.048867967,0.04084677,-0.038270533,-0.02674663,-0.008625887
joyzor,0.0121045485,-0.0038234368,-0.007324647,0.030339587,0.037837956,-0.035020195,-0.048435915,0.0012093075,0.024677303,-0.036585234,-0.031314872,-0.042997766,0.010011125,-0.031806245,0.04612759,-0.0065386184,0.020702247,0.0023475885,-0.027979756,-0.034297183,-0.006465912,-0.0223647,-0.038535632,0.024842177,0.020676877,0.008695804,-0.032303967,0.012798075,-0.015742015,0.04742254,0.035480592,-0.036187302
nebuhax,0.04654566,-0.025609469,0.008103289,0.008662187,-0.014107894,-0.012720801,0.02082714,-0.020091617,-0.008313321,0.019435655,0.039302852,-0.013688445,0.005267609,0.045452822,-0.03445206,0.016481701,-0.0138426535,0.014039341,0.014693569,-0.011012744,-0.006159924,0.012058318,-0.0073424354,0.0079827905,-0.045264006,-0.041614544,0.037052285,-0.0039719827,-0.008788668,-0.026570404,-0.008476876,0.03039601
aneius,0.06462802,0.04852962,-0.061299752,-0.031039024,-0.0072013624,0.0158556,-0.010339856,0.027709845,0.03710026,0.00690639,0.0137951635,-0.015360914,0.0029329658,-0.003621865,-0.04137359,0.0011529811,0.0041623823,-0.016950928,0.03670707,0.018228043,0.03771553,0.0031151287,0.012771655,0.04248998,0.03211588,-0.031261757,-0.015380047,-0.03642843,-0.00093785673,-0.045357276,0.0030050874,0.049435783
goblam,0.023507964,-0.029155636,0.032321166,-0.0008655414,0.015681755,-0.001635205,-0.019422997,0.039148655,-0.041021526,0.0061786547,-0.03574412,0.0072263256,0.024784718,0.023819115,-0.031933475,-0.025764525,-0.020444358,0.0303833,-0.048179686,0.029075239,-0.040124238,-0.031966962,-0.041065823,-0.033604313,0.042208765,0.007941268,-0.0017894134,0.048379038,-0.045805026,0.0031857863,0.0029383525,0.018914942
cqlmox,0.041054975,0.02722026,-0.04919461,0.024199892,-0.009006213,-0.019576717,-0.04220977,0.02289218,0.019835893,-0.042896498,0.004463993,0.02448276,-0.030330611,0.015921477,-0.0018173829,-0.027520431,0.02358203,0.010490049,0.04849786,-0.032186054,-0.039876617,0.029373731,0.0068096407,0.0161697,-0.025195885,-0.014191486,0.026253473,-0.04657047,0.027228344,0.0014935024,0.036225785,-0.036627363
cybron,-0.039276112,0.048994426,-0.03958877,-0.008525133,0.015589241,0.022700164,0.03579196,0.019362632,0.014639471,0.028883602,-0.022597266,-0.025355268,-0.008455157,0.04067448,-0.03366332,-0.036628284,0.029526066,-0.032920323,-0.018187605,-0.0050321333,0.0014283173,0.04309419,0.025861394,-0.0034692064,-0.0018917434,-0.028717756,-0.038163055,-0.043989968,-0.04073782,0.024391685,-0.044669546,-0.02035085
nikbus,-0.0004005432,-0.024085378,0.025529671,0.038195718,-0.022989094,-0.019443655,-0.016259003,-0.01488496,0.0255283,0.034088735,-0.020184863,0.017842088,0.04638758,0.04805963,-0.030824864,-0.043542206,0.034772817,-0.010130726,0.040487412,-0.01582104,0.03197739,-0.048374295,-0.002502393,0.019925538,0.03646667,0.048204098,-0.007808674,0.027775321,0.014259491,0.041134622,0.021130268,-0.03388585
vridius,0.014672164,-0.026561989,0.007354103,0.04785392,0.0012619719,0.042371403,-0.001317013,0.007881831,-0.0011215582,-0.003975641,-0.017647158,-0.030580295,-0.0015856735,0.026296083,0.04768348,0.019649748,-0.034915805,0.019529726,-0.0064352974,0.037870858,-0.03306599,-0.005209051,0.0061395653,-0.032736138,0.04638684,-0.028204536,-0.039591096,-0.0061230175,0.02370746,0.013412308,-0.04535302,-0.04332317
faoulon,-0.04930674,0.022050772,0.026444305,-0.0045123585,-0.009672441,0.042540815,0.008579649,0.049961735,-0.038535666,-0.0058634765,0.017924335,0.0025979877,0.0042325146,-0.018328141,0.017367039,-0.02964108,-0.045730185,0.039949086,0.015086088,0.03324229,0.041806664,-0.043375876,-0.03644351,-0.00297568,0.014292132,0.02143344,0.0029174462,0.012379564,-0.04792508,0.044992123,0.017772082,-0.023058558
kometo,-0.041516196,-0.010618828,0.028769244,0.01513591,-0.0004926808,0.009886216,-0.016504657,-0.0054155216,0.037041035,-0.0028150305,0.045936514,-0.006459307,-0.027747858,-0.04537449,0.041091952,0.038471747,0.01338632,-0.040418673,0.03359208,-0.03790779,-0.0052264705,0.022962954,-0.010756064,-0.038124345,0.00485456,-0.0004274845,0.037406873,-0.036148857,-0.0063627847,-0.02418648,-0.02162354,-0.020643461
yentus,0.015154611,0.021698166,-0.022203064,0.04836445,0.023446951,-0.009700596,0.041024778,0.040187802,0.026166547,0.04595468,-0.025343418,0.0015197173,-0.020097256,0.028251376,-0.012248956,-0.03539593,-0.005447902,0.02659491,-0.014672898,-0.043621898,0.017780248,-0.009535052,0.043277923,0.040402416,0.01402751,0.0079908,0.03585166,0.047430184,-0.040338982,-0.028080488,0.026906226,0.007278491
astrln,-0.04807747,-0.018134631,0.04970884,-0.013523985,-0.04126201,0.044432532,0.045366142,0.033208396,-0.02933891,-0.040150594,0.042035554,0.013944913,0.03600723,0.024045039,-0.032574013,0.030652586,-0.029178321,0.015913356,-0.0021375194,-0.031693615,0.03262308,0.002297651,0.018115725,-0.021979202,0.034510974,0.04894841,0.0133184455,0.015804145,0.038616847,0.0013295896,-0.025409186,0.006472934
lrvium,-0.021075284,0.017046656,0.018980477,0.0012338273,-0.022221208,-0.017411899,0.028684642,0.03431454,-0.014045633,-0.015314471,-0.01247742,-0.022853447,0.011579026,0.017665971,0.034318116,0.047842015,-0.0020489916,-0.03094815,-0.0339427,0.042709615,-0.009992339,-0.0052028187,-0.023435568,-0.019308938,0.009379435,0.018034767,-0.012706973,-0.0062886477,0.03458036,0.0103310235,0.01751883,-0.042389046
furix,-0.013952959,-0.03701942,0.048124086,-0.022527158,-0.03281889,0.013785768,0.024654735,0.010119438,0.014217589,0.0027229898,-0.017247725,0.038603757,0.036483083,-0.011419583,0.0026132949,-0.047666933,0.018062677,-0.04702225,-0.009714376,0.017414797,0.049316827,0.003837049,-0.045811415,0.038976166,-0.003096141,0.017640341,-0.015443336,-0.013535835,0.008962512,0.028878298,-0.03576089,0.012692306
boyzor,0.009926973,0.0042808335,-0.062158536,0.04335494,-0.0055221915,0.0037154928,0.017591547,-0.029895438,-0.009664871,0.025878612,0.049483027,-0.04410651,0.037308123,-0.036402274,-0.023668444,-0.007975448,-0.026585793,0.001487352,0.022875343,0.012798298,0.0033278354,0.015015844,0.011957444,-0.048619032,0.042414118,-0.0125535615,0.023259092,-0.038286317,-0.030565096,0.029139187,0.0168995,0.0032952055
novtm,-0.049920738,-0.02760042,0.045072857,0.04747236,-0.0047892444,0.028672706,0.015350748,-0.042204715,0.025179517,-0.03713907,0.0019037724,-0.033450354,-0.03463938,-0.028732419,0.04994997,-0.04645002,0.04867501,0.0064706914,0.029531088,-0.034708273,0.024265204,-0.016080283,0.006202448,-0.016428053,0.026837435,0.007870056,-0.04154413,0.013614085,0.046401825,0.03385712,-0.031731118,-0.014215566
datax,0.023012307,-0.047719873,-0.044898916,-0.010142375,-0.005205475,-0.03274851,0.04609264,0.017843317,0.030789044,0.04007298,-0.020244097,0.041357543,-0.0097867735,-0.046972003,-0.03414966,-0.034784175,-0.0045979023,0.04070456,-0.009931315,-0.01977471,0.028286185,0.0069379583,-0.017389141,0.0014599562,0.019325558,-0.022363484,0.020091344,-0.047273647,-0.031777523,-0.048483778,-0.021876229,-0.024549413
yobonix,0.04860807,-0.046533942,-0.007898916,-0.0012478232,0.031660903,0.038946103,0.037489478,0.03532033,0.009948395,-0.013655413,-0.027052188,-0.026130473,-0.009514879,-0.021785213,-0.015199173,-0.023223782,-0.041951977,0.04435316,0.043274153,-0.038517892,-0.045913387,0.011648286,0.039799776,0.046375383,-0.042599987,0.043632124,0.04300263,0.035090815,0.035246503,0.001122199,-0.0435843,0.02902038
stjrdux,-0.008906793,0.042861406,-0.01473888,-0.013224624,-0.032399394,-0.020585133,-0.03678266,-0.016712915,0.029454123,-0.013338268,-0.014519025,0.0042160973,-0.048679102,-0.012772702,-0.00442164,-0.047744524,-0.009369768,-0.030343473,0.0287791,-0.018918097,-0.02123629,0.047748033,0.027238015,0.04795858,0.046995927,-0.016916763,0.025598887,0.012654189,0.021964218,0.023215655,-0.011071801,-0.007845771
aeop,0.072367996,0.06342314,-0.031824198,0.00010353327,0.012420535,-0.034624994,-0.000569202,-0.025883019,-0.049949575,0.04225159,0.004509937,0.012515638,-0.042446602,-0.026264025,0.023014639,-0.027358448,-0.03746462,-0.031469274,0.007370949,-0.014341604,-0.046331253,-0.04680828,0.01180942,0.027766895,0.047620904,0.018970463,-0.041425478,-0.04854692,-0.020402908,-0.03648492,-0.03345543,-0.010032725
synapx,0.028900292,-0.007654391,-0.04406934,-0.0056596883,0.04991019,-0.0480162,0.019471798,-0.027198529,0.026990857,-0.019374227,0.0282172,-0.043415308,0.040584598,0.018957738,0.008176267,0.035952304,0.039352503,-0.034409285,-0.021407926,0.038137402,0.024441484,-0.035372697,0.030042026,-0.04380989,0.017945055,-0.041240323,0.046100963,-0.040555917,0.021984924,0.015126411,-0.009196866,0.04355179
excvtar,0.043435108,0.029999208,-0.002309002,-0.020606363,-0.023179604,0.010643233,0.011533715,-0.032656454,0.022616673,-0.008112468,-0.023268724,-0.019880427,0.028787125,-0.042137623,-0.041654706,-0.0066922903,-0.009930778,0.015749063,0.022335578,0.024482418,-0.034656383,0.019499552,-0.019804263,0.015986469,-0.04435128,0.0493999,-0.028073097,-0.016331792,-0.036094785,-0.01701044,-0.025448238,0.020317782
lunnx,0.047614407,0.0150834955,-0.014115989,0.03906517,-0.013657726,-0.041002464,0.037834886,0.04875188,-0.047457743,0.007945847,0.010751676,-0.005756773,0.00022605807,-0.0030351765,0.009639479,-0.023918903,0.042436447,-0.006767474,0.04076064,0.012268662,0.001565408,-0.006434299,0.03672259,0.0010886304,-0.04893831,-0.009019673,-0.034308575,-0.00934447,0.015039984,0.024375211,0.031223346,0.036171664
cridius,0.048995566,-0.047716238,0.04017109,0.0023553595,0.002346456,-0.044044495,0.019412484,-0.020050216,0.025626648,-0.036235046,-0.022282148,-0.00033305958,0.04442786,-0.03691276,0.047140006,0.034400713,0.025251854,0.019834135,-0.026668036,-0.030151797,0.017444815,-0.03201928,-0.040701378,-0.018074322,0.035648514,0.032890115,-0.0036369562,-0.048911083,-0.045917775,0.006614398,-0.034687866,0.006252002
lehfon,-0.033806838,0.007905602,0.026784305,0.049394216,0.01471955,-0.048665274,0.01941831,0.04474945,0.0010227673,0.007403396,-0.021661056,-4.4953078e-05,0.0036536232,-0.016428959,-0.025937533,0.017398525,0.0011298172,0.019295085,-0.024098564,0.012904774,-0.031531025,-0.021668876,-0.0034426078,-0.04869454,-0.014267504,-0.008421995,-0.0312917,-0.042769264,-0.002101969,0.023352291,-0.042806685,-0.024883032
blissxm,0.0300649,0.019092618,-0.035074763,-0.0148638,0.01982591,0.0007990375,0.036957446,-0.0114770755,-0.04710511,-0.0017118677,0.044444446,-0.046206605,0.013721887,-0.008090723,0.009887613,-0.036553692,0.023408238,-0.044490945,-0.028080618,0.018101368,0.027121555,-0.034094144,0.03024945,-0.0049851052,-0.006417416,-0.028491616,0.040002797,-0.043407347,0.013777759,0.040299688,-0.009955358,-0.026499009
ftbulon,0.049422357,0.016479168,0.02703384,0.0135616325,-0.042520475,-0.031195438,0.040923405,0.0006614551,0.024374451,0.045182552,0.048913512,0.0049322248,0.02532002,-0.043840766,0.0010455251,-0.044897605,0.04113405,0.029753711,-0.0031591542,0.04166725,-0.018450357,0.02091929,-0.01956178,0.017146502,-0.00037845224,0.0062909946,0.008042753,0.028808545,0.04923624,-0.008294307,0.043014947,-0.026142467
sirepix,-0.012445606,0.0065173507,0.031813566,-0.04053371,-0.036765765,0.008247625,-0.01602026,-0.021223987,0.036801014,-0.041352905,-0.029886056,0.0058254004,-0.022264708,0.032812167,0.04444099,0.016929578,0.04034922,0.010474719,-0.0004524216,-0.034574937,0.032014463,-0.012606848,0.028853249,-0.0035528764,-0.041974902,-0.0038087144,0.027092647,-0.014635302,-0.017913949,-0.021110082,-0.03598659,0.024741177
robonis,0.024998281,0.027023066,0.001427114,-0.038953673,-0.030799687,-0.003166236,-0.029017031,0.002306141,-0.024752093,-0.024851013,0.001522243,0.016248036,0.0474245,0.04408684,-0.037504293,-0.047071826,-0.037466682,0.01644801,0.03951687,0.0049180984,-0.0054654106,0.021487642,-0.038847517,-0.007250823,0.024135362,-0.03276459,0.0016128905,-0.031069804,-0.023837447,0.01871575,0.014222514,0.039656032
awezom,0.0067833024,-0.0050834827,-0.04389268,0.011474133,-0.01899079,-0.040786196,0.027378786,-0.019526541,0.04893488,-0.01182238,0.040499214,0.043266486,0.03188617,0.034855846,-0.0230569,0.0034901127,-0.03191234,-0.03809731,-0.034728337,0.007408358,-0.021649932,0.036862995,-0.005490791,-0.045698512,0.01479267,0.02954669,-0.004887365,-0.027302181,0.0390406,0.021217417,-0.033987604,0.010184072
blapnz,0.007059178,-0.010203079,-0.084356435,-0.011381328,0.006658815,-0.03231504,0.036737476,-0.030916799,-0.029766751,0.037844602,0.024235342,0.013660934,-0.031918526,-0.002879154,0.015173446,-0.0010585673,0.030078385,0.031846132,-0.045955874,-0.007206179,-0.020128846,0.03685837,0.025332455,-0.024957895,0.035773728,-0.012469567,0.034629617,0.019726995,0.02811103,0.00783249,0.038995195,-0.04912422
bqapoz,-0.056296654,0.0031309363,0.049330324,-0.028601766,-0.013455212,-0.03762834,-0.021304358,-0.0078014843,-0.022220695,0.015470926,-0.031859837,0.0040216334,0.041062724,0.021997977,0.019028831,-0.012729574,0.044775043,0.036784697,-0.04831462,-0.04460434,0.0344947,-0.0053926334,-0.025583291,-0.026570236,-0.008318126,0.037677888,-0.029100215,-0.024948884,-0.018776227,-0.04414139,-0.020979954,0.039896075
sporpom,0.033832323,0.024393607,-0.0047867075,0.017025556,0.017451439,-0.013858963,0.040095415,0.019746985,-0.043522324,0.04859444,0.009807587,-0.042299356,-0.0027887933,0.011766661,-0.043981243,-0.04977187,-0.017438412,-0.0108812675,0.030220974,-0.022748804,-0.047712613,0.042795967,0.00808705,0.04893862,0.031206083,0.04676983,0.03020611,-0.020604968,-0.002654694,-0.038145088,0.04485834,-0.021909667
hopjum,-0.02166357,-0.040026248,0.043693747,-0.018598448,0.024416637,0.015944492,-0.024973214,-0.003934134,-0.020794524,0.010819696,0.04100472,0.0061222315,-0.025574327,0.017481577,-0.042818535,0.02082194,0.018130127,-0.03712199,0.04616255,0.014521096,-0.039385926,0.040893782,-0.045135286,0.03707664,0.009593617,0.042745817,-0.046371114,-0.017596483,0.03338406,-0.021421326,0.0056044944,-0.0332883
onsectus,0.007348776,0.027572606,0.018182661,-0.021530116,0.015477631,-0.0017262474,-0.002491869,0.027158532,0.042009484,0.03284246,0.029924896,0.022580113,0.0031018965,-0.007757686,-0.00056798384,0.0097184405,0.020818565,-0.013103925,0.026465904,0.028837588,0.02676754,0.021475326,0.044459667,0.02564596,-0.021380091,0.04644457,-0.020532047,0.04588102,0.047949504,0.029540453,0.021641884,0.026668418
krakos,-0.025493575,-0.00022063404,0.03334805,0.047807757,-0.0017999522,-0.014127515,0.028400075,-0.01148399,0.016280655,0.03409146,-0.040151108,0.034088198,-0.03457848,0.020743553,-0.02898178,0.042556252,-0.032780744,0.011357497,-0.039364565,-0.017643034,0.03883851,-0.03926351,0.028112616,-0.04013127,-0.029592479,-0.03427948,0.009778976,0.043089617,0.025339235,-0.021226263,-0.04079199,0.029671934
epikot,0.034494054,-0.030883158,0.036863457,0.0011559837,-0.010465123,0.041138772,-0.03548689,0.025404718,-0.021971857,-0.03461144,0.009181749,0.024567854,0.022869255,0.012725357,0.0342598,-0.016336035,0.028067123,0.029192578,-0.009404421,-0.0006251931,0.02150977,0.020662967,-0.027459204,0.024109993,-0.028695548,-0.020020008,0.02792437,0.0062745586,0.0016849749,0.01024127,-0.02168635,0.045495104
cewestar,0.026320707,-0.04626404,0.038194228,0.043671932,-0.037201166,0.03308959,0.029342782,-0.02690289,-0.0077660456,-0.0050899275,0.017900158,-0.037996102,0.04854833,-0.02032553,-0.043707192,-0.0012327321,-0.036555506,-0.0033472069,-0.037301887,0.036652315,-0.0017298572,0.042668376,-0.041169822,0.011558734,0.048761796,0.049131226,0.0034668073,-0.04490303,-0.030246317,0.02217916,-0.035054505,-0.037740923
shockss,0.02850623,0.03715271,-0.04860859,0.047038127,0.042389218,0.011297692,-0.014143933,0.04738349,-0.047211993,-0.04062841,0.038646493,0.043214325,-0.019425595,-0.020844793,-0.04990517,-0.042705655,0.03514043,0.04608572,-0.023140168,0.007453669,0.01708528,0.003878165,0.0066778287,-0.034748413,-0.015992545,0.0096353665,0.017979253,-0.046394456,0.010163914,-0.017982148,0.00025181845,0.0049953684
euvex,-0.035622276,-0.020428015,-0.0065205917,0.042257223,0.02424388,0.03315096,0.04790691,-0.003755916,-0.013149846,-0.010413133,0.028254751,-0.0006082058,0.008184433,-0.016053546,-0.04420475,0.03796314,-0.0046563856,0.032448117,-0.013585877,-0.013114668,0.024601888,-0.02065897,0.016861606,0.041522715,-0.03661269,-0.02863778,0.02921902,-0.021302665,0.0062081106,-0.04404782,-0.0113784075,-0.044267643
biokex,-0.029286092,-0.025281614,0.05052666,0.035313915,0.009316146,0.031688694,0.0176134,0.02293909,-0.026008284,0.035978388,-0.023520065,0.034681763,-0.011615086,-0.04429525,0.04868902,-0.015281726,0.027797248,-0.02760539,-0.014077939,0.049755756,0.04675654,0.0019038208,0.03631879,0.047767725,0.026509237,-0.02493453,0.042265225,-0.0020451657,0.035865042,0.009718597,0.006922316,-0.032220446
technds,0.0289325,-0.02288263,0.00027387217,-0.027914846,0.011894189,-0.049571455,0.038296115,0.0006120205,0.004804384,0.029135335,0.008083679,0.018992353,-0.0464677,-0.0047992095,-0.014184404,-0.034599088,0.018310081,-0.041917004,-0.049986135,-0.037284683,-0.04572053,-0.019785678,0.014505077,-0.03627237,0.021965552,0.0018862262,0.0296227,0.04705343,-0.014913093,-0.016619217,-0.03717216,0.0031037927
solarix,0.01829746,-0.013727605,0.0015135519,0.01666281,0.027622942,-0.02373072,0.030664686,0.013256121,0.035971496,-0.008392535,0.026303057,0.0042317025,0.006031953,0.0070052147,-0.03783208,0.0017657503,0.0065898895,0.029770304,0.023424651,0.0024456978,-0.014970839,0.00053147227,-0.009448014,0.019422065,0.049808335,0.04575951,0.040992785,0.0337081,0.04412676,0.0073935166,0.045646813,0.028544191
disgux,0.034082893,0.017797124,-0.021582378,0.047275197,-0.0028472766,-0.03889785,0.020837162,0.046812717,0.015675593,-0.045135953,-0.011870027,-0.049436606,0.038350154,-0.02942804,0.02670968,0.032128025,-0.041486405,0.0073753595,0.038519453,0.020824205,0.020560596,0.014525775,0.011978827,-0.036615063,0.045270156,-0.033562697,-0.037996065,-0.039317645,-0.0027261972,0.00071599334,0.023230363,0.046577875
xenn,-0.045307696,-0.021323586,0.04425556,0.004744757,0.020733986,0.04723456,0.037122015,-0.049716283,-0.041634955,0.033997905,0.03434092,0.0049458966,-0.031529654,0.0192145,-0.03848654,0.043239284,0.04706471,0.026171777,0.009054758,0.043815855,0.0024211295,0.030875694,-0.008543991,-0.008186888,-0.019278396,0.04097266,0.010505952,0.03450514,0.0051656254,0.033133674,-0.033576597,0.007066846
dronix,0.028370429,0.026239645,-0.04697838,-0.048619103,-0.030149817,-0.001976192,0.006498195,0.011802863,-0.029481066,-0.0044392124,0.009066723,-0.024373507,-0.014635719,0.013334904,-0.023885,-0.037260614,0.03512833,-0.023174405,0.008317806,-0.016064249,-0.008351792,0.022577558,-0.0040894262,0.026567642,-0.04135393,0.015491966,0.006188832,0.027043294,0.0013086796,0.005436886,0.019774985,0.023660388
cryptoz,0.04033423,-0.007623922,-0.027746964,-0.020304644,0.030567255,0.014428187,0.023619,-0.007443048,-0.027212465,0.0107630715,0.043493796,-0.021673156,0.032581773,0.03427783,0.049174834,0.030657325,-0.028646542,-0.00640551,0.04288086,0.019929621,-0.028793454,0.04741391,0.018789891,-0.043643188,0.041205887,-0.04510014,-0.013347436,0.0067363605,0.005909037,0.04355264,-0.020085728,0.0007577762
anzius,0.048613917,0.016125336,-0.04074878,0.023228828,-0.041226946,0.0063422695,-0.030415012,0.022141311,-0.019080782,-0.015195858,-0.032609105,-0.04422895,0.0470899,0.022767413,0.02681123,-0.034545936,-0.012368988,-0.020643998,-0.018394351,-0.00097053126,0.0089103095,-0.0014948137,0.022514071,-0.034946144,-0.027963674,-0.011874974,-0.019892156,-0.014256261,-0.036533237,0.048746172,-0.03392472,0.046936203
aviaia,-0.008013641,-0.019561335,0.082656495,-0.018500723,0.019638788,0.013931524,0.03880867,0.044857275,-0.03092978,0.014673065,-0.00906669,-0.032365024,0.024502072,-0.043743383,0.039691154,-0.033226717,0.047459234,0.023440901,-0.021947099,-0.014744855,-0.014007568,0.035529066,0.042112675,-0.012143254,0.04870851,-0.028809214,-0.0070307143,0.02385633,0.023892436,0.02158523,0.016034912,-0.0025332682
beastpx,-0.06506484,-0.03498016,0.088207275,0.015314888,0.042252246,0.045175005,0.04967684,0.03320575,-0.016830992,-0.023488903,0.029926647,0.021317486,0.03880364,0.018903468,0.027286086,-0.01565839,-0.0066743493,-0.04417756,0.026104342,0.015677858,-0.0361905,0.0088758245,-0.0053084493,-0.04065491,-0.026753116,-0.04910269,-0.030569375,0.022510592,-0.045996692,0.025596272,0.043644454,0.011463501
hollx,-0.029106116,-0.046750177,-0.046014417,0.01479676,0.025567923,-0.013656162,-0.048895776,0.042114947,-0.042187035,0.035185967,-0.03066709,-0.03061018,0.010907508,0.0019314513,-0.04778675,0.04445908,0.0049576983,0.023137044,-0.042401433,-0.03777182,0.030273091,0.0219219,-0.011796463,0.012307309,-0.04793582,-0.041731823,-0.009397604,-0.04599787,0.047653865,-0.03597238,-0.03945043,0.016112033
codex,-0.019892741,-0.0067297593,0.024210203,0.0024293177,-0.013454117,-0.025046302,0.02409419,-0.0017954931,0.02685031,-0.00805825,-0.028329551,-0.024016155,0.003039658,-0.016201474,-0.04774499,-0.0033680089,0.027681198,0.047697376,0.02897222,-0.031680845,-0.004000999,-0.018374957,-0.016961612,-0.026629044,-0.0048364513,0.03471103,0.009585001,-0.017300092,0.038045656,-0.049634695,0.038524333,0.010547768
cycbopix,-0.023965538,0.013294268,-0.0014891252,0.013763677,0.043093074,0.013415325,-0.01715175,0.03580633,-0.037319697,-0.0071850643,-0.019451464,0.04816613,0.025172535,-0.009985615,0.01281121,0.014928851,-0.030624283,0.029061127,-0.011572253,-0.007140912,0.025041949,0.021425057,-0.031871393,-0.007794954,-0.015722014,0.03542305,0.019823823,0.029909898,0.031187046,0.03220577,0.04331131,-0.03949232
dredzx,-0.03832866,-0.035238683,-0.04130789,-0.04631665,0.048278343,-0.019597996,-0.045898367,-0.035080574,0.035649266,-0.029096438,0.02044345,-0.019392062,-0.046675254,0.023005936,0.03498176,-0.04808403,-0.0006986968,-0.041701484,0.024054382,-0.023944749,-0.01691265,0.018493202,-0.017539036,-0.026441848,0.03180791,0.025827479,-0.018926024,-0.00011737272,0.03326149,-0.013475429,-0.006300319,-0.04947692
sagax,-0.026869202,-0.011987876,0.027947221,0.0131775625,0.048384096,-0.005378127,-0.03229803,0.02444129,-0.020214653,0.019568648,0.010871209,0.0045232065,-0.031312227,-0.012115646,-0.01363536,-0.0108935125,0.0029869452,0.038202476,-0.02676375,0.04182383,0.045899455,-0.0011699796,0.043943074,0.02701861,0.030710626,-0.04170978,0.016287949,0.018680107,-0.0007067546,0.017973725,0.022847604,-0.008727454
fearix,-0.0013996847,-0.023675203,0.0040665865,0.017100517,0.038860623,-0.045863118,-0.026612377,-0.02878648,-0.039191425,-0.009581745,0.0036685467,-0.008720767,0.011723269,0.006579958,0.03553151,-0.0046980865,-0.046602618,-0.044902623,-0.023443962,0.0375085,0.046781693,0.044603717,-0.016744364,0.024133395,-0.028672993,0.049338374,0.043621328,-0.00022314861,0.00619309,-0.0153962,-0.03654201,0.020221602
lazerqn,-0.024797369,0.001255475,0.030983198,0.037689414,-0.0051686056,-0.025477683,0.027009737,-0.0041412823,0.005821921,0.028233197,-0.042565204,0.027149145,0.03673147,-0.0047930703,0.042014446,0.02768961,-0.017315842,0.04996157,-0.021940935,0.03879753,0.014761392,0.007857252,-0.01131209,0.0011842735,-0.010094751,-0.04050219,0.049636927,-0.038517725,-0.0063206553,-0.03940917,0.021779899,0.04994035
cebrex,0.038509585,-0.005393158,-0.0153386975,0.0045435913,0.031950485,0.03775548,0.03348836,0.011853896,-0.04689994,0.02365673,-0.04806131,0.040033173,-0.027142942,0.03708974,0.022840116,-0.028712248,0.00025788695,0.024983887,-0.04193411,-0.04199829,-0.016894937,-0.031007648,0.045406733,-0.044455614,0.0005588308,0.001367975,0.03336278,-0.03257902,-0.03316255,0.00035340711,-0.035833977,-0.020211697
sagmx,0.0015513673,0.008820258,-0.013389982,-0.04006468,0.048453163,0.0031664968,0.024409723,0.038902175,0.04090846,-0.03344922,0.044733334,0.010357261,-0.033154286,0.021374632,-0.029352868,-0.04806895,-0.013143826,-0.009950936,-0.030557906,-0.030253101,-0.00912001,0.03790671,0.03929187,0.047685515,0.023393903,-0.0056763776,-0.03229157,-0.011987962,-0.018866254,-0.014902722,-0.036132455,-0.02627821
blisqam,0.0141885355,-0.020160884,0.0045974557,0.049377035,0.04891521,0.016704906,0.026093196,-0.01686424,0.045978215,0.045536015,-0.04277761,-0.027374495,-0.043434966,-0.0106084235,-0.024619235,0.0075374357,0.027000178,-0.03934356,0.007419467,-0.03726839,-0.018527053,-0.011606932,0.013619628,-0.04203888,-0.003793873,0.036978733,-0.018467866,0.04482844,-0.037154604,0.014091264,0.0057918653,-0.025843024
droeix,-0.016703378,0.023589138,0.03165889,-0.022670818,0.038530994,0.032781053,-0.025230695,0.017245281,0.013371278,-0.012123931,0.022713613,0.045432996,-0.025647474,-0.01835388,0.034186374,-0.040477335,0.01194321,0.0090734735,-0.042345323,-0.035508074,0.04062977,-0.049822044,0.015272502,0.0046244487,-0.025251282,-0.0035781488,0.040110182,-0.0078036785,-0.016666293,-0.006809272,0.034588996,0.017021898
ferrix,0.0077614672,0.040610526,-0.041593574,0.0075627565,0.029565405,-0.011895515,0.036789607,-0.047630966,-0.017767023,0.035165314,0.035062086,-0.03409343,-0.0125300065,-0.040646173,0.04636946,-0.011543978,-0.01877134,0.03157598,0.029580224,-0.0053934567,-0.010254659,0.04291943,-0.0091606155,0.009892739,-0.015152611,0.048315372,-0.029451549,0.048158657,0.016371857,0.00054820627,-0.037161756,0.007960428
celistar,0.03128204,0.023535158,-0.007512033,-0.008620489,-0.04614922,0.045564715,0.020685878,-0.03382869,-0.030384494,0.016004752,0.016726162,-0.008953296,0.02064738,0.007264424,0.026252773,0.028968934,0.0030304417,-0.038951077,0.03296459,-0.043220367,-0.04898086,0.03935558,0.020766426,-0.0149456635,-0.012491941,0.024519395,-0.044154573,0.014105145,0.0123335235,-0.03544744,-0.0030131564,0.016874004
draaos,0.012144208,0.0018498786,-0.03738197,-0.00017912313,-0.046795167,-0.003461171,-0.020303726,0.020068612,0.036898267,0.013118375,-0.03778521,0.021206487,-0.041391373,0.004119288,-0.041962933,0.040803228,0.034512255,0.031232443,0.019590225,-0.03654921,-0.031694494,0.010752391,0.0015640147,-0.043358207,0.026870165,-0.02703507,-0.013813339,0.020943094,0.013740931,-0.044199087,-0.015313853,-0.010471366
znikor,0.03848766,-0.030510737,0.0053833835,-0.049593627,-0.049943425,0.00027466938,0.01900718,-0.012555696,0.0009017959,0.025524523,-0.01776705,-0.02870115,0.016567718,0.0018382072,0.025961388,0.04251298,0.041337598,0.035624873,-0.022262765,-0.049473036,0.0030159466,-0.003811013,0.010104239,-0.0040179603,0.0015466325,-0.029759014,0.040940408,0.046681415,-0.041813385,-0.026260508,0.016581144,-0.041730236
elqex,0.023169685,0.035434786,-0.010774054,0.025158409,-0.044000518,0.049001668,0.04676899,0.03232396,0.030407395,-0.015275311,0.03299285,-0.0049552917,0.042213213,-0.014085375,-0.028633952,-0.03803172,0.02783053,-0.038468994,-0.032644413,0.048783828,0.03555349,-0.012421034,-0.008990239,-0.037228383,0.046112206,-0.019182205,0.048473205,-0.02922045,0.029782835,-0.013627958,-0.007348109,-0.008811377
tetanos,-4.6409667e-05,0.016642991,5.557388e-05,0.03283168,-0.044364464,-0.020460367,0.012758661,0.0041612163,0.03858583,-0.012397576,0.015997875,-0.009704042,0.006037332,0.03688519,-0.0012452975,0.0019430406,-0.044712733,0.035553586,0.011714362,0.031509947,-0.04107107,-0.011440814,-0.019676507,0.038469676,-0.047053814,0.0060484633,0.039461326,-0.027917122,0.012667421,-0.013650108,-0.00077044964,0.0079469085
ddakos,-0.017226648,-0.046441842,0.009815969,0.0208967,0.019404221,0.034346912,-0.01832626,0.0036620498,0.007564403,0.036144022,-0.011642061,-0.025695622,0.016497795,-0.034740746,0.01680613,-0.021499718,0.04056715,-0.04136194,-0.006548129,-0.00967741,-0.02561419,0.039262023,0.006152846,0.014999513,-0.03877921,-0.021018922,0.038444225,-0.036373425,0.024736237,-0.04954145,-0.018579602,-0.0484146
pzlsar,-0.03973938,0.005423628,0.027997587,-0.020505905,-0.048356008,0.036325898,-0.040136408,-0.031073654,0.041698422,0.042948876,0.010586463,0.014673639,0.006847821,-0.0038736947,-0.018924488,-0.011315584,-0.023704791,0.03001758,0.046798017,0.005287528,-0.010207392,-0.034899186,0.0023333654,-0.038755953,0.049138416,-0.023433447,-0.007394813,-0.041617524,0.010357462,-0.01930492,-0.04053507,-0.04422337
gmblax,0.020952914,0.011941172,-0.02487501,-0.04525421,-0.02237047,0.04564676,0.0013963357,-0.036011957,0.016740952,-0.01798731,-0.011897482,-0.0354406,-0.015136801,0.0014871955,-0.031013394,0.048775885,-0.039736725,-0.04192965,0.01643863,-0.03086934,-0.03945718,-0.032464944,0.04959396,-0.042861927,-0.046529915,0.030706022,-0.020497203,0.0059681423,0.01992691,-0.016733933,-0.041403078,0.0065876134
warpu,0.021038938,-0.032671142,-0.029304683,0.013471279,-0.032276765,-0.022693384,-0.0073008314,-0.029981077,-0.04665513,-0.04773779,0.024128925,0.048094813,0.015956428,-0.02104795,-0.004674185,0.009332143,-0.02363423,0.042913105,0.025311735,-0.0031083599,0.0048512705,-0.024529362,0.016391885,0.014460359,-0.035457026,-0.04643886,-0.011617731,-0.034500647,0.015008118,-0.013725914,-0.047676362,0.040903654
solix,0.039818298,0.03178138,0.0072331205,-0.0366969,-0.03483001,-0.04404713,0.032467786,0.04273547,0.040130977,0.0053159483,0.014216844,-0.02324425,-0.009576548,-0.041668735,-0.040947724,-0.00016075373,0.04178344,-0.045196738,-0.024366533,-0.033475295,0.034287978,0.029826704,-0.020657385,-0.014549173,-0.004172839,0.017219331,0.041078437,-0.00019369274,-0.020234121,-0.0023312457,0.020010222,0.032519702
chyptoz,-0.0023185983,-0.016194642,-0.016129456,-0.017061569,-0.0459626,-0.012607656,0.018183198,0.015034024,-0.0028269403,0.03567231,0.02400047,0.026067402,-0.03749039,0.023686577,0.011015106,0.0327943,0.037909497,0.008831024,-0.024471534,0.0466589,0.0061623454,0.01645914,-0.014840461,0.023122657,-0.025170088,-0.003878463,0.048547614,0.046772692,0.04350679,-0.049065243,-0.019272817,-0.011655711
qulntaz,-0.03826643,0.03569741,-0.03547151,-0.035032712,0.042524938,-0.03612851,0.006570231,-0.043680277,-0.04956719,0.0036014318,0.009827923,-0.040627994,-0.017699849,0.033636298,-0.042826034,0.034573626,0.041729834,0.010070421,-0.0027552843,0.030475643,-0.043371428,0.02444717,-0.022259368,-0.02261703,-0.039170396,-0.04010149,-0.04099846,-0.008200347,-0.023095047,0.039236497,0.046458628,0.04569992
lazeron,-0.023609484,0.04701492,0.022546653,0.04568595,-0.019389689,0.033619177,0.049926404,0.040729497,-0.020796478,-0.042598832,-0.0014222637,-0.014955413,0.030175995,-0.0038098097,0.027260471,0.010036111,0.048584092,0.00027688593,-0.008281041,0.018473115,0.041565146,-0.0040644296,-0.0250345,0.011081409,-0.02522192,-0.04330274,0.027293097,-0.03648715,-0.031669904,-0.039593577,-0.042601813,0.020458605
ekstdx,-0.008571647,-0.025200069,-0.008740615,0.046143424,0.031556595,-0.027329743,0.048794474,0.009184182,-0.015222322,-0.002304364,0.019548047,-0.036653377,-0.03131058,-0.02589034,0.019763317,-0.0008016713,-0.030022383,-0.030995203,-0.040914822,0.0023422353,-0.014661301,0.018552724,0.030552868,0.031156365,0.017575014,-0.004580356,-0.043161213,-0.0026274696,0.0037701502,0.01521505,0.041201737,-0.016349457
dredai,-0.02209866,0.04144721,0.036176834,0.031498287,0.037440587,0.026380863,-0.0475973,-0.02849536,-0.024523377,-0.049474683,0.002937138,0.016627397,-0.049250316,-0.04921142,-0.029406596,-0.049750756,-0.008340813,0.009607125,0.028588805,-0.011284091,-0.004820157,0.046676647,0.030714158,-0.038059138,-0.009683527,0.00031314045,0.0056099296,0.01413456,0.04141656,0.018553805,0.004956566,-0.047232904
orbitzz,0.024538387,0.008797288,-0.02624104,-0.030160189,-0.017780602,-0.009829532,-0.04031781,-0.041440725,-0.017822672,-0.04978142,0.027007852,-0.007986069,0.02458005,0.03096975,-0.00092760473,-0.015443791,-0.04709475,0.04507095,-0.007909644,-0.007503152,-0.02430824,0.016983893,-0.024376929,-0.0049133077,0.0027550347,-0.013867997,-0.002613224,0.022879932,0.017485533,-0.014070284,-0.03434807,0.029913973
sqockus,0.011836171,0.043030355,0.030452017,0.0045198686,-0.0017222762,-0.038133167,0.01778907,0.029387068,-0.039971232,0.022610161,0.024405371,0.0069012158,0.016335,0.044222545,-0.044986438,-0.0036236756,-0.012934398,-0.021835888,0.029277276,0.045542013,0.043860447,-0.03041854,0.03974012,-0.038535047,0.012026299,0.004129816,-0.020617712,-0.0043614134,0.030434955,0.0365854,0.036042538,-0.045284368
nerba,0.028537426,0.0413944,0.03827497,0.0008878708,-0.018831193,-0.03064319,0.035131622,-0.0020247921,-0.004104413,-0.012484144,0.04539499,-0.018755222,0.04926995,-0.044021513,-0.039109778,0.042924013,-0.014150597,0.018043209,0.03072599,0.023876462,0.041317943,0.005398918,0.0030355677,-0.009609245,-0.046597864,-0.028699016,0.046083402,0.01943871,-0.03481915,0.010675274,-0.023180379,0.015012328
ueox,0.04846141,-0.025967717,-0.031307627,0.041175727,-0.04099822,-0.015396725,0.034977045,0.0005592592,0.0014337525,0.009679817,0.048440073,-0.03737105,-0.02092792,-0.014757384,-0.032316912,-0.014580239,0.029662792,-0.024651289,-0.0007191412,-0.019612862,-0.0382607,0.0072736964,-0.017137252,-0.033357847,-0.023566127,-0.029829312,-0.03926549,0.029228877,-0.0064508542,-0.0075251944,0.03414282,-0.029413247
ltrix,-0.019455422,0.009814598,-0.005681373,0.044238303,-0.034512054,-0.030951692,0.010275841,-0.034222268,0.044392023,0.019775841,0.0020685568,-0.02554884,-0.03329716,-0.007943608,-0.04335027,0.03432324,-0.047177363,0.0073666945,0.017654132,-0.0018402562,-0.026657045,0.030598465,-0.018947244,0.00831648,0.04845086,-0.048126865,-0.02356428,-0.045126762,0.014252853,-0.041313685,-0.047959697,0.03587458
fearjx,0.027739141,0.014180962,0.035647,-0.040302612,0.010796059,-0.011621345,-0.010975372,-0.031291388,-0.029554749,-0.041428722,-0.020863581,0.039236497,-0.04272422,0.023284245,-0.04099542,0.025590848,0.044044983,-0.049271394,0.041063275,0.047871146,0.0036339872,0.028282393,-0.01234635,0.02812792,-0.004041601,0.018870447,-0.004598748,-0.031779423,-0.022723556,-0.0036526695,-0.005685199,-0.041246854
excitav,0.04968104,-0.048197366,-0.009556152,0.019944083,-0.046744037,0.023318302,0.021214452,0.049850333,-0.007896543,-0.014852047,0.017993119,-0.018335592,-0.0072898977,-0.0027436242,0.025822911,0.036612164,-0.0114774,0.031358276,0.033729877,0.041193794,-0.029593742,0.029972624,-0.049444556,-0.007661689,0.0016967282,-0.04369811,0.027267542,0.005540192,0.0471483,0.014478575,-0.009297956,0.008185577
egphorix,0.01178547,-0.021529688,0.047871295,-0.02119956,-0.0084735975,0.028337192,-0.023276819,-0.019396758,0.003207434,-0.049147513,0.017583195,-0.0102959275,0.037960026,0.027185787,-0.020460749,0.012534607,0.04998428,0.030877326,0.028134953,0.03582077,-0.03711792,-0.00080776215,0.004179798,0.011079848,-0.042850878,0.02791189,-0.03706304,0.0034429915,-0.046403706,-0.00038715452,-0.031946182,-0.0071738847
izsectus,0.037759352,-0.03794694,0.049400482,0.022506703,0.030290175,-0.048080433,0.04926339,-0.017027378,0.0025240555,-0.024136055,0.0036727786,0.013667058,-0.037699915,-0.038125336,-0.015006281,0.04470947,-0.022647535,0.010294568,-0.048437823,-0.001546979,-0.013163388,0.043143723,-0.047025204,-0.00719155,-0.042226184,-0.024952162,0.038002264,0.020680394,0.008621015,-0.005196549,-0.014928509,0.0033660904
gniax,0.011678468,-0.033967517,-0.0024095774,0.017879035,0.00880108,0.027535584,0.03756899,-0.042495813,-0.017536521,-0.019663466,-0.043889295,0.0020303838,0.003953837,0.035076153,0.021289002,0.048899736,0.018719401,-0.027131809,-0.04994713,0.021310363,-0.0073798075,0.038955417,0.029563356,0.008428883,-0.028578509,-0.031724833,0.0406685,-0.012782671,-0.013009809,0.026434693,-0.03752569,-0.03140818
celwstar,-0.031182481,-0.047662057,0.021758031,0.03590324,0.0491699,-0.038133204,0.02600671,-0.017826784,0.04777659,0.02377912,0.029761244,0.015556324,-0.030840933,0.041631702,-0.020022428,-0.0070460215,0.0037875995,-0.023094762,0.018796328,-0.0362386,0.042306375,-0.0311283,-0.009863377,-0.00828173,0.044921804,0.002975773,-0.015835058,0.042236913,-0.041853823,0.01290052,0.0062133074,-0.016281784
folwar,-0.004107058,0.0026338696,0.026654053,0.046975743,-0.029515041,-0.04606868,-0.018098246,-0.013993155,0.020304237,-0.033657968,-0.02395624,0.02338003,0.016209219,0.039151106,0.0022997372,-0.040818702,5.1937997e-05,-0.0336046,-0.04591718,-0.02641045,0.03206252,0.035345662,0.028556082,-0.041567672,-0.049249887,-0.01949842,0.019497905,0.03005531,-0.016871847,-0.04081292,0.04386461,0.019212987
horp,-0.021072244,0.0051890835,0.03325684,-0.0065109953,-0.030369079,-0.025111688,-0.049824547,0.012919281,0.0073434114,0.014887307,-0.031429604,-0.014155675,0.031118106,-0.034723006,0.0016838796,-0.008616101,0.047931086,0.027694311,-0.009969998,0.0336687,0.003080286,0.015082348,0.047750544,-0.0028127804,0.00065066665,-0.049694993,0.0023754463,0.030061532,-0.037285708,0.0017147884,0.031030681,-0.009466529
asbron,0.008486809,0.008624312,-0.07226256,-0.0019182339,0.02696855,0.023166839,0.047179256,0.012244392,0.002533853,0.00564437,0.04991061,-0.012930702,0.027659904,-0.04487678,-0.03535377,0.0033406243,0.0016954169,0.009625863,0.036780488,0.047599625,-0.02751639,0.02010801,-0.032103024,-0.0060491934,-0.043908563,0.00132934,-0.01544974,-0.00014110655,-0.0073685646,-0.0064618364,-0.048506714,0.034549963
lazervn,-0.017190766,0.0085904375,-0.004216075,0.04914974,-0.016400337,0.038898993,-0.030930186,0.012334943,-0.04550786,-0.0034406558,-0.028038466,-0.0037122592,0.0126544945,0.045837883,0.030391004,0.027344141,0.009198308,-0.009411443,0.046034466,0.008897364,-0.041644454,0.017268274,-0.018249024,-0.018297754,0.005173087,-0.02544788,-0.019256247,0.04171772,0.019852187,0.024814893,0.047067035,0.0036460534
seypod,0.027642582,-0.008647323,-0.020524895,-0.019298662,-0.024594033,0.026278723,0.034888815,0.040100817,-0.022237469,-0.03908838,0.008603357,-0.027714718,0.009643219,0.046010565,-0.030138468,-0.0071792975,0.005143512,0.03343815,0.004177369,0.040450726,0.0145293735,-0.0095947385,-0.012759674,0.04176897,-0.040241767,-0.03842609,-0.044395592,-0.03790481,0.022415388,-0.008021582,0.01979382,0.03636844
ebvex,0.024959292,0.032704238,-0.043006625,0.031230096,-0.026499106,-0.03344287,0.0070386045,0.027372722,8.4448606e-05,0.030059014,0.012504403,-0.04895989,0.036764335,0.045833144,0.0006158948,-0.026949191,0.022178363,0.041755367,0.03732263,0.015394498,-0.04568709,-0.019544804,-0.02343452,-0.0477932,0.04252887,0.03845488,-0.04040102,0.01794168,0.013387684,-0.036578096,-0.022143472,-0.049239673
euphorim,0.031896543,0.042751323,-0.014575791,0.008348335,-0.037232257,-0.033361055,-0.0007332936,-0.0072900765,-0.004335273,0.016476583,0.04269563,-0.044600166,-0.008093335,-0.0070203766,-0.0064216033,-0.03709344,0.048466098,-0.0007365942,0.0074698217,-0.030765593,-0.0061886795,-0.041947506,-0.036892105,-0.042011213,0.015145887,0.047843624,0.027845893,0.036441628,-0.0012387037,-0.00080806017,0.003899373,0.015680555
feyix,-0.049297024,-0.007068049,0.023356367,0.033652913,-0.024986936,0.023680601,-0.027857458,-0.026429284,-0.0022660717,-0.047228184,-0.03830558,-0.0008799806,0.002096843,0.015983228,0.012396801,0.016742263,0.0048953295,-0.03913449,0.012961093,0.049287226,-0.038100086,0.028716076,0.043362055,-0.04972074,0.011866964,0.04789846,-0.019539857,0.04272045,0.0462106,-0.0005910881,0.02429792,0.025081579
febrix,0.0018285997,0.0022316687,-0.038712204,-0.04283173,-0.03997935,0.0065901764,-0.024568617,0.022584546,-0.019639123,-0.047799088,-0.038881578,-0.045830466,-0.008274019,0.046079684,0.009653114,-0.008538723,0.0014142022,0.017904285,-0.0370569,0.017570462,0.014093224,0.0389732,-0.017515708,-0.015227627,0.0027795322,-0.021782601,0.035166416,0.0039691553,0.03365233,-0.017903231,-0.017977692,0.024339411
ragex,0.021758389,-0.032640055,0.00820265,-0.04211985,0.0035024174,-0.04404024,-0.027209831,0.01802275,-0.0036409274,-0.0052216873,-0.024274921,0.03766148,0.039494645,0.018024456,0.04900891,0.01790886,0.008064531,0.016572919,-0.04657773,0.031687174,-0.0419371,-0.035637867,-0.02420416,0.0092639215,0.0069903247,-0.011408508,0.0046489127,-0.025642812,-0.04065652,0.0021291263,-0.00065342337,-0.017402519
qexus,-0.02979288,-0.03499583,-0.007784415,-0.03956952,0.032434892,-0.005533349,0.027270231,0.018635701,0.01159922,0.024642434,-0.013222218,0.0026910529,0.028132115,-0.028744115,-0.036176514,0.041299943,0.009671938,-0.029435217,-0.021324134,-0.0034981854,0.0028733723,-0.008756567,0.04237655,-0.039766453,-0.030085385,-0.009916674,-0.018993223,0.041667726,-0.003066551,-0.003854584,-0.025530864,0.02980541
fenii,-0.040767454,0.02964795,-0.013427842,0.008911252,-0.015153956,-0.012047589,0.00091576576,0.02490108,0.03203318,0.0026155598,0.046261612,-0.0027871244,-0.034392428,0.0025095344,-0.0097466335,0.0045078993,0.024371777,-0.027927388,-0.008992948,0.030056212,0.020898711,0.023970034,0.002883315,-0.011934139,-0.015184928,-0.012539554,0.0069440976,0.01379085,0.032892946,0.031832565,0.037175227,-0.04610013
cehestar,-0.016765404,-0.0118946545,0.046321515,-0.020319581,0.0001026988,-0.029270245,0.043131817,-0.027227987,0.03871261,-0.002953101,-0.0021403208,-0.043072727,-0.026590396,-5.872175e-05,0.01261181,-0.040797602,-0.04536717,0.03717592,-0.026002025,0.041139927,0.015090156,-0.020309746,-0.035877775,0.0067565814,0.04729629,-0.0009853728,0.044554617,0.04815812,0.0020585544,0.0036683083,0.013960149,-0.0030597337
ornitaz,0.0204384,0.0020183548,0.00028239563,0.048415568,0.0448676,-0.025073934,0.0031042583,-0.0058755167,-0.04883293,0.040214982,0.04301316,-0.04233123,-0.0019126907,0.0037661195,-0.009903289,-0.016973864,-0.0011930093,0.048430372,-0.017171215,-0.044446815,-0.03546872,0.017693345,-0.031636596,-0.028347243,-0.044912424,-0.031689562,0.028139059,0.022399355,-0.00064911693,-0.032072447,-0.022583937,0.00072925165
tehranix,-0.040258467,0.0028249733,-0.04248737,-0.014768064,0.00034096092,-0.016600788,-0.005044423,-0.016179621,-0.0011480674,-0.049771454,0.01262809,0.046105776,0.044881348,-0.02341578,-0.00024553388,0.026945923,0.024758827,0.0071836337,-0.041049935,-0.032906927,-0.02617438,0.008093931,0.005302906,0.018836845,-0.049319234,-0.01525246,0.03042202,0.04492731,-0.041640244,-0.038184475,-0.049132872,0.007149853
pldvia,-0.007455278,-0.023549939,0.0041476265,-0.0061014183,0.032398555,0.0008239746,-0.001893092,-0.006047927,-0.0071353093,0.040746544,-0.022137333,0.03800707,-0.014663793,-0.02048899,-0.011389423,-0.039231908,-0.018923258,0.03794234,0.045664538,-0.039828837,0.032734025,-0.02253809,0.038758088,-0.03966887,0.0067626946,0.018969487,-0.027934015,-0.032802977,0.03559116,0.037543144,0.032238547,-0.010264434
puksox,0.04172487,-0.0056819804,0.018444728,0.009871922,-0.0089911595,0.02525064,-0.0038038492,0.023555804,0.016066719,-0.04562935,0.0286364,0.043295767,-0.04164257,0.04174537,-0.03252139,0.04960609,-0.0447541,0.011239398,0.032974984,0.0026924014,-0.029282248,-0.029122412,-0.025172247,0.015478026,0.00556463,0.024806175,-0.031096984,-0.019350637,-0.026490225,0.017111067,-0.010991551,0.017124388
ghixx,-0.041985534,-0.022555137,0.01372743,0.016169164,0.030274037,-0.0155591965,0.014877867,-0.011254825,-0.016524434,-0.043765604,-0.009081699,-0.02148155,-0.025367666,0.010022175,-0.015334569,0.02209356,0.047380257,0.036806975,-0.012847625,0.01838011,0.016190756,0.0111345425,0.008287691,0.04306111,0.045623135,0.010400534,-0.001824189,-0.0022599213,0.043379772,-0.0043606386,-0.04039719,0.030444253
cosmix,0.045486007,0.02673817,0.024833445,0.03704915,0.047846768,0.043608274,0.02230009,-0.005613841,0.0050057285,0.039670955,-0.043733634,-0.028615857,0.047177482,-0.023146844,-0.01087103,0.03646381,-0.0029530749,-0.047736157,-0.041077435,0.0007202998,-0.002612017,-0.04122951,-0.020350993,0.007520817,0.019721989,-0.019516444,0.004352331,-0.04775547,-0.037683845,0.025439229,-0.0139378905,0.010220576
holxx,-0.021548426,0.015590336,-0.02013805,0.030808065,0.020136181,0.0062411204,-0.014870178,-0.041198753,0.03048772,0.022455182,-0.0146279335,0.032257628,-0.018899798,-0.016874146,-0.043373503,-0.014030792,0.014288891,0.008718528,0.0063356273,-0.021087898,0.04883795,0.015880693,-0.030266106,0.03768524,0.03576081,-0.021028638,-0.0039190277,-0.01413957,-0.011380542,-0.007955454,-0.025531745,-0.044488408
unikor,-0.041247677,0.0013569705,0.00993333,0.024898123,0.02455927,0.04035342,-0.047184635,-0.031272292,0.016509835,0.025499467,0.003118705,0.0022702925,-0.020785773,0.026107397,-0.015349306,0.043967497,0.013742659,0.032571387,-0.023521066,0.035954285,0.007913373,-0.032061778,0.033262502,-0.019275224,0.020617079,-0.0033680424,-0.039018463,-0.017046917,-0.012819983,0.010197461,-0.039167307,0.029491339
hfrba,0.01981609,0.0084551945,0.046152864,0.03700978,-0.034567785,-0.04387938,0.03916904,-0.017907105,0.04888655,-0.041260503,0.047484133,0.0059380047,-0.006562602,-0.0075680725,0.013639931,-0.04364531,0.041666213,0.031462822,-0.017787982,0.0015825741,0.010694183,-0.03382726,-0.015266359,-0.0027028434,0.02379619,-0.031752065,-0.003553532,-0.04691422,-0.004557263,-0.0014188178,0.031165432,-0.010792576
crypooz,0.00452926,0.02319679,-0.015205026,-0.008232463,0.030586038,-0.035389174,0.0073014013,-0.016694903,-0.037885748,0.046102177,-0.025499333,-0.032001425,-0.04673351,-0.046357132,-0.013948061,0.020368207,-0.040639877,-0.007856082,0.032467473,-0.031113232,0.03880885,-0.03153192,-0.021446252,0.042462874,-0.028903449,0.029422391,0.045463767,0.028568838,-0.021977818,-0.025024319,0.016445067,0.0022420064
techix,0.017053995,0.0398905,-0.048451044,-0.03243617,0.016132679,0.016205404,-0.00040162727,0.0001719594,-0.008816589,0.03735972,0.01956233,-0.018731367,-0.04814179,0.03386051,0.036367062,-0.040210962,0.0001325719,-0.013149023,-0.012745775,0.010019768,0.018537853,0.017084155,-0.04255989,0.03298265,-0.013879932,0.0010271184,-0.013661183,-0.0003009811,0.024292622,0.010429107,-0.047161937,-0.006089639
cimbus,0.0472587,-0.015146077,-0.029393805,-0.021360148,-0.025099719,-0.023621107,-0.033646837,0.013797928,0.009371243,0.023660947,0.022708643,0.038531113,0.021272827,0.03969199,-0.01438459,-0.004707299,0.03256662,0.041207347,-0.028807068,-0.023789573,0.012342215,-0.028873181,-0.023565663,0.03626624,0.043495107,-0.037427556,-0.00050358847,0.046910774,0.004517447,-0.043382313,0.0013303533,-0.012051046
quanyaz,-0.00054130703,0.008437753,-0.000849545,0.04058275,0.0205413,-0.026558304,-0.036064886,-0.006085824,0.029732231,-0.04004737,-0.033279553,-0.0023119673,-0.04024278,0.010643244,0.041318264,0.037683595,0.014851186,0.038897406,0.009635139,0.02120522,0.03390329,-0.041400958,-0.030042887,-0.00575646,0.047144007,0.014690671,-0.015318371,0.004512526,0.0460932,0.034417417,0.018948544,0.024652872
qudsar,-0.025775302,0.024676394,-0.033114303,-0.032675315,0.006759513,-0.028994275,-0.040001284,0.023908261,-0.018900145,-0.005590178,-0.028941287,-0.049165905,0.024279345,-0.036017466,0.037607063,0.029642973,-0.037214182,0.0057087764,-0.0013732091,0.002839256,-0.0464545,-0.033983484,0.010266639,-0.020112742,0.03263296,-0.00013333559,-0.00031010062,-0.039027013,-0.042984057,0.033420924,-0.03944386,0.022985253
biorex,-0.02697898,-0.008641447,0.031900976,0.002991639,0.02690566,-0.036087453,0.034584727,0.04668739,-0.025859846,0.014621768,0.034689773,-0.018074084,0.015250791,0.021228645,-0.014353037,-0.02044865,0.02808446,0.02866638,-0.0034343489,-0.0019310005,0.042004276,0.018359575,-0.02883879,0.014881756,-0.018314622,-0.022092426,0.026727568,-0.04217268,0.004629016,-0.01357875,-0.0028366335,0.01409838
vazeron,-0.01853975,-0.018806243,-0.012076877,-0.048512317,0.015815306,0.01867373,-0.046542574,0.015808556,0.014314238,-0.0042304397,-0.000469625,0.022902455,0.027370345,0.035944197,0.010230254,-0.018767262,0.0397367,0.03128339,-0.002278436,-0.046281457,0.047938917,-0.039220892,-0.038153064,-0.03457477,-0.011054456,-0.028994335,-0.025459671,0.039163474,0.040144015,-0.038649738,-0.032881964,0.015339877
cryftoz,0.03203911,0.042938124,0.040839802,-0.0074810274,-0.003905438,0.043820944,0.032264743,0.030661989,-0.0068350546,-0.033390917,-0.0010851137,-0.0392177,-0.008736335,0.013419475,-0.012707971,0.010032941,-0.022702266,-0.0206293,-0.02959398,-0.012620173,-0.0017824993,-0.046192158,-0.01863011,0.04313669,0.011700381,0.005756378,0.028306607,0.01712786,-0.033076562,-0.038434137,-0.03570194,-0.04471923
oronix,0.017511372,0.018522035,-0.04969857,-0.044466376,0.04113544,0.023179147,0.022356097,-0.048554994,0.03217553,0.006873846,0.025365677,-0.033665396,-0.034487188,0.029454414,0.01743697,0.04087026,-0.027755369,-0.034854613,-0.0024591908,-0.006518744,-0.04054711,0.015705276,-0.049918998,0.0144995935,0.0119897835,-0.007008314,-0.03173356,-0.04404155,-0.04553349,-0.022751762,0.040025387,0.038267765
rrakos,0.04103187,-0.043402743,-0.034351125,0.009980213,0.031389322,-0.048985958,-0.013693176,0.0040442944,0.030056212,0.009565018,0.031184886,-0.007771708,0.039365534,0.0011305325,-0.04730315,-0.021396447,-0.018196762,0.033113506,0.023036633,0.030375626,-0.028378392,-0.005407274,0.035810318,-0.03179388,-0.004894994,0.017106738,-0.011756718,0.049366046,-0.033183374,-0.049201228,0.04233611,0.018275622
tkchnos,-0.0058987252,-0.0012536049,0.020913783,0.048301045,0.022231985,0.03783841,0.012317371,0.040751923,0.020475868,0.037446085,-0.04525367,-0.038212635,-0.040952183,-0.04922402,-0.033523023,-0.009113751,-0.0027152784,-0.031829774,0.025172774,0.02512357,-0.038315617,0.04303563,0.027073812,-0.0016993061,-0.006132923,0.018790994,-0.039281595,0.033292558,0.03389417,0.024479512,-0.031878997,-0.020708991
fephyr,0.009561289,0.041156497,-0.026605641,-0.023612011,-0.032093786,-0.021458758,-0.008188356,-0.045506883,0.01050403,-0.018559445,-0.02528956,-0.014020599,-6.151199e-05,0.041459087,-0.036301505,0.005114414,-0.03563509,0.0054384246,-0.005670119,-0.036572766,-0.015039347,-0.0073804967,0.031068217,0.04918876,-0.017397035,0.024168942,-0.048907697,0.028448354,-0.047997486,0.010719813,-0.030932534,-0.03527216
virtua,-0.047066297,-0.024774242,-0.04248121,0.03987262,0.028496314,0.046566796,0.03900853,-0.047337484,-0.04859184,0.04988687,0.011962555,0.018678453,-0.023783518,-0.041941702,-0.024466777,-0.004389476,0.034936044,-0.040255833,0.036945764,0.0334404,0.004852187,0.025069404,0.047847483,0.043121103,-0.028942717,0.019112978,-0.012223326,-0.0464152,0.048325215,0.007131435,-0.00986309,0.022658993
beadtix,-0.027637217,-0.019683208,0.0700424,-0.008195866,0.009121597,0.02325875,0.0028539188,0.028620195,0.049234938,-0.008100271,0.046160806,-0.017215837,0.04253651,0.011486638,0.039276067,0.03321818,-0.0042560324,0.045466136,-0.048613727,-0.01141534,-0.04890826,0.013350297,-0.03923551,-0.03911539,0.003513895,-0.008035112,-0.023001706,-0.020998789,-0.027989341,0.027546976,-0.049887862,-0.030042851
pluvia,0.0027103536,0.03911444,0.038494375,0.04474387,0.016101371,-0.022065902,-0.03154975,-0.004394807,-0.04325744,-0.008084167,-0.03167348,-0.01379969,-0.035908066,-0.04743849,-0.037134517,-0.0068842396,0.019006062,0.012004901,-0.02459085,-0.018975426,-0.03815068,-0.047648598,0.038780812,0.047490228,-0.014526606,-0.011050809,-0.022780968,-0.02109511,0.011428356,0.01819596,-0.0419407,-0.02522136
meteorn,0.02396958,0.010228921,-0.0073184147,7.005781e-05,-0.0022799,-0.00089615583,-0.0017602667,-0.037263263,-0.042207647,-0.03417351,0.027060498,-0.006898761,0.025289666,-0.024556113,0.029121045,-0.015777431,-0.037736166,-0.009390425,0.026753198,-0.04386648,-0.03443669,0.049034905,-0.001987256,-0.012908496,0.012096774,0.04613265,0.0055615194,-0.02557323,-0.04635017,-0.019457912,0.013364304,0.02503622
vortex,-0.01474347,-0.004593633,-0.03417714,0.002009701,0.037670974,0.03844798,-0.014805637,-0.015255034,0.0029662251,-0.031183243,-0.0033906326,-0.034159683,0.04680958,0.020562474,-0.012268506,-0.037650216,0.028852407,-0.044446375,0.02374072,0.01849499,-0.007708419,-0.0025422089,0.009706199,0.01440848,-0.010671031,0.0006128773,0.038553048,-0.02694943,0.0062617436,0.031364325,0.028784242,-0.03161311
kometk,0.036719326,0.011272706,0.03636067,-0.037160885,-0.025585055,0.01598939,-0.026207566,-0.048013236,-0.007755231,0.0023079626,-0.007222306,-0.0021731034,-0.042159915,-0.015850198,-0.015198268,-0.003927838,-0.033674706,0.041219745,0.033176135,-0.026149357,-0.0315642,-0.012816954,-0.030621624,-0.012887575,-0.0051500797,0.047928635,-0.039713323,-0.042372774,0.031674873,-0.0071372017,-0.0040890686,-0.006717466
relikzm,0.023582708,0.0058401227,0.047742356,0.03366426,-0.025163962,0.022911552,0.0110461,0.028822687,0.0036173575,0.042587165,0.01666249,-0.00086381286,0.038512412,0.017798547,0.034051273,-0.010125242,-0.014836848,0.031345535,0.019205797,0.016641524,0.03229448,-0.023443533,-0.02337948,0.017949823,0.024187397,0.02177051,0.011156879,-0.045153774,-0.047477007,0.017962899,-0.046860326,-0.03267894
neguz,0.027036581,-0.035527945,-0.009499051,-0.035692014,0.040858436,0.028263044,-0.030468632,0.012432765,0.030673232,-0.0035402663,0.0053800233,0.04184555,-0.046793796,-0.032442927,0.025721345,-0.009201776,-0.048805453,-0.00092953444,0.005967211,-0.039731957,-0.025405718,-0.023362208,-0.0058184266,-0.008998286,-0.0035213344,0.022083294,-0.042333078,0.01921798,0.015216652,-0.021356344,-0.005709626,-0.040849984
shockws,-0.029707445,-0.0451033,0.011849295,0.040103648,-0.0029062144,0.029294085,0.017675612,0.0035804734,0.04319599,0.033241037,0.03335574,-0.027056051,-0.00069043785,0.0025228746,0.024277698,0.00058317184,-0.04001986,-0.0057344437,0.02842113,0.03739984,0.04822911,-0.022737324,0.0033837445,0.0042455904,0.022416364,-0.049188077,-0.0037859567,-0.031431902,0.030179586,-0.048934866,-0.02587117,-0.008218147
kometr,-0.03712348,-0.005478453,-0.036623787,0.032682147,0.020276513,-0.009474218,0.04503623,0.017684583,0.01732153,0.01752225,0.006084811,0.03084084,0.0012646802,0.026420955,-0.013712883,-0.0047479495,-0.031567026,-0.024652505,0.019360337,0.04780717,0.035867754,-0.013030779,-0.026547624,-0.014878869,0.029203106,-0.047171082,-0.017055787,0.008986019,0.00040891021,0.009940635,0.022932258,0.009797595
tprranix,-0.026101768,0.0435904,0.037890386,0.04869539,0.013377201,0.016618978,-0.021841884,-0.006590795,-0.049833607,-0.0305766,-0.02578373,-0.029488957,-0.0033784285,0.017962743,-0.007038571,-0.0112963095,-0.023427654,-0.020253038,0.025252413,-0.035519253,-0.019343365,-0.013138711,-0.01794251,0.049910437,-0.034897935,0.038374368,-0.008414637,-0.04083067,0.016341817,0.046561744,0.044649575,-0.0062844977
quansix,0.030944455,0.028118674,0.011292528,0.026486944,-0.019941354,-0.0114796385,-0.0052167177,0.019931864,0.012681674,0.044070233,0.014992442,-0.037259854,-0.048935663,0.027919505,0.029026773,0.02592088,-0.028365541,0.004511535,-0.036742877,0.027504038,-0.030111326,0.026201297,0.021871042,0.008902408,0.042366628,-0.0016963109,0.03440172,0.044411395,-0.021988405,-0.041781545,-0.002109278,-0.016336132
quantix,-0.015324783,0.0401433,-0.035566736,-0.021917654,0.012769852,0.025664639,0.020990994,-0.030053997,0.013999645,-0.024300624,-0.021929657,0.044829074,0.014118079,0.015007529,-0.016477466,0.023306537,0.034581576,0.03266592,-0.011406589,0.0020762905,-0.019608581,0.038616527,-0.02122587,-0.0023730397,0.048197936,-0.037159216,0.0006271601,-0.041824006,-0.030138886,-0.036311902,-0.037089337,-0.022301972
corix,-0.04661689,0.047581796,0.044951167,-0.017312516,-0.0026395917,0.04994117,-0.03275286,-0.04804033,-0.025080824,0.017759088,0.031237137,-0.033527613,0.020369891,0.014733624,-0.019575298,-0.02385348,-0.032348562,0.014138866,-0.007051956,-0.01715082,-0.0022561774,0.0015028343,0.010088287,-0.014555156,0.013957765,-0.023664607,-0.00875603,-0.016579937,0.02515347,-0.023774136,0.0068320744,-0.049043953
anxius,-0.007436284,0.012569038,0.008394975,0.047614206,0.028508905,-0.048121583,-0.02158885,0.01810569,-0.046522465,0.046016324,-0.0060895085,-0.04852543,0.023594629,-0.0035474524,-0.020824706,-0.04797442,-0.04472605,0.010318529,-0.046919968,0.0102562085,-0.017890774,0.026341353,-0.04029727,-0.022632016,0.04758778,0.0011671893,0.0157444,-0.01905427,0.046562765,-0.041075252,-0.016200185,-0.024378693
grbphox,0.025237467,-0.027850164,0.042763297,0.04446641,-0.0259876,0.022536661,-0.014088117,0.024474237,0.039696757,0.04411402,0.026274752,-0.015308,0.0018077865,-0.012348749,0.014368657,0.044364993,0.03393537,0.033732478,-0.033072434,-0.02076373,0.003651429,-0.03792665,0.016379606,0.03422307,-0.006135665,0.0006752126,-0.012906622,-0.0014034621,-0.047675777,0.027252745,-0.030804325,-0.042634655
cacmox,0.033622205,0.009044545,-0.037501823,0.00500492,-0.030036652,0.03377446,0.045505915,-0.030073524,-0.009780072,0.033104945,-0.04966178,0.019329023,-0.02815336,0.04851457,0.012709785,0.014999513,-0.026254594,-0.046865847,0.012117408,-0.020923281,0.03379034,-0.029069532,0.043164443,-0.016762327,0.034866598,0.03747983,0.041942466,-0.04675908,0.027928058,-0.023172129,0.04129834,0.046203744
cenox,0.018140245,-0.04066465,-0.009856202,-0.03969544,-0.016187083,0.008982085,-0.025639642,0.0028845295,0.00061761215,0.013839316,0.041410495,-0.014124393,-0.024607409,-0.034479715,-0.025401248,-0.016716052,0.013770763,0.0004949458,-0.018119477,0.011146236,-0.0032183528,0.045350958,0.02996913,-0.010214079,0.003147889,-0.023306418,0.020127568,0.032632817,0.03765445,-0.0025326721,-0.012845028,-0.008472085
blaloz,0.07761968,0.03472413,-0.037858926,-0.0046080835,-0.033411134,-0.027088607,-0.031917237,-0.030893791,-0.034570385,-0.035195924,-0.033691704,0.04382539,0.006311536,-0.0045120716,0.0044648424,0.04531792,0.0120487325,0.017260674,0.014057491,-0.049656212,-0.03480314,0.025373552,0.040743534,0.0010219216,-0.036641896,-0.039244033,-0.043712534,0.030666593,0.02638879,0.025841895,-0.022717059,-0.01305455
nivara,-7.939339e-05,-0.047773506,0.0152774565,0.010440718,0.0035814866,-0.0025433525,0.025362942,-0.027901758,-0.023784637,-0.03379883,0.0049218163,0.015879456,0.0009822957,0.017692778,-0.04245577,0.0056454167,-0.016483057,-0.023712946,-0.0027250163,0.013339404,0.007806886,-0.04025819,-0.015192069,0.03446548,-0.017415274,0.0023752935,0.006194938,-0.032951713,0.035773825,-0.0025071613,0.017938819,-0.038900517
calmox,0.053121608,0.051011987,-0.035069942,0.035718706,-0.028051782,-0.026557459,-0.03264852,-0.012704216,0.012263358,0.023289863,0.0064651854,0.037493575,0.0042578205,0.028358627,-0.030227685,0.016405616,-0.021676803,0.02956425,0.008097518,0.0082802065,-0.026812708,-0.043051995,-0.029038787,0.041113798,0.012357652,0.019586135,0.03403039,-0.02952044,-0.048903655,0.020797681,0.0061249845,-0.004356254
roboqix,-0.038654387,-0.027213192,0.04587311,0.02289075,0.045458626,0.024706315,-0.0059344396,-0.00048147514,0.025527548,0.017412413,0.026489247,-0.00035119057,-0.008674048,-0.037941407,-0.04109186,0.03853369,-0.02162434,-0.03728769,0.004995249,0.043434802,-0.028035868,-0.028773988,-0.02107947,-0.013387062,-0.009435333,0.007942438,0.029539991,-0.013403237,0.019184176,-0.034475647,0.02639893,-0.046637
blissam,0.027845649,0.0036668626,-0.035558127,-0.0038787834,0.035196092,0.04476914,-0.0042266026,0.015491378,0.031662915,-0.01042787,0.02867243,-0.023716522,-0.035487235,0.045541514,0.020306874,0.008218788,0.0011965036,-0.043562185,-0.028012443,-0.04506228,-0.00062686205,0.031346563,-0.009873617,0.0043467283,-0.035123788,-0.01791836,0.004660357,0.04710119,-0.011551131,-0.041136287,0.047022786,-0.03558395
solarih,0.025814224,-0.04322337,0.03130838,0.033323143,0.0043669716,0.017535832,-0.044445135,0.012575928,-0.025761425,0.0122619495,0.011627376,0.021172646,-0.011093713,-0.00016225502,0.011864208,0.008197118,-0.0411311,0.038906243,0.027407471,0.042264234,0.029614914,-0.026674438,-0.037322044,0.023761425,-0.030694246,-0.04245007,0.028317403,-0.0068467483,-0.03709959,0.03800762,-0.048013724,0.027872983
quanaaz,0.04800899,0.023648266,-0.029284155,-0.036267005,-0.011946786,-0.002711665,-0.037375115,-0.040551327,-0.014957882,-0.007762719,0.0005602464,-0.020227456,-0.023243641,0.019650247,0.04645801,-0.004834257,-0.019283129,0.0043893233,-0.022168135,-0.032616995,0.037858274,-0.0017709024,-0.04738275,-0.013507415,0.036465656,0.04824697,0.0394778,-0.019976676,-0.01786257,0.04646263,0.033831466,-0.027501548
nebuz,-0.028762281,0.0030829795,-0.009102583,0.027293134,-0.00032506138,-0.024272954,0.04625162,-0.005880654,-0.049781587,0.043560777,0.0475937,0.03926797,0.045956064,0.01683775,0.02234501,0.0048679337,0.04185262,-0.018792272,-0.04669553,-0.025788903,-0.038754202,0.017961685,0.048375797,0.022507694,0.016227212,-0.03513298,-0.0012356751,-0.01941551,-0.032658756,0.03574306,0.043111686,0.041906085
zolp,-0.0047338605,-0.00085089356,0.042202983,-0.01894573,0.04977235,0.0467044,0.023543563,-0.0048056245,-0.039563216,0.0477832,-0.005031336,-0.034945704,0.0086122155,0.04594675,-0.0018547066,-0.019656682,-0.031020736,-0.0030593872,0.036671225,-0.005184006,-0.031756178,-0.0039624684,-0.04814682,0.04584689,0.011029173,-0.03633845,-0.002227269,0.002452828,0.03953955,-0.046672046,-0.00061429664,-0.032606855
quasar,0.045416545,-0.013009511,-0.04193592,0.024138663,-0.049548484,0.0012170672,-0.03881403,-0.04549072,-0.014690388,-0.049367726,0.021894787,-0.02288617,0.013332192,-0.04510207,0.04304911,0.014587317,-0.0033473372,-0.03577001,0.048123185,0.038545076,0.007234372,-0.03408066,-0.019822692,-0.031085575,-0.01951809,-0.04106306,-0.046145737,-0.04830828,-0.023872519,-0.008468725,-0.010772239,0.023762014
euphorix,-0.014144193,-0.033196915,0.027768586,0.00093572214,0.027402405,-0.0037489533,-0.0015059114,-0.024669457,-0.010679103,0.01690403,0.029011313,0.03503413,-0.022192944,0.009994544,-0.027147043,-0.036851667,0.03441814,0.0067072995,0.018657569,-0.020528162,-0.005593799,0.024410617,0.0056899674,-0.013523888,0.012477767,-0.012452163,-0.02351904,-0.037690748,0.012003623,-0.03594922,0.0032312982,-0.020764267
ustron,-0.04277761,-0.03627213,0.04335035,0.026468191,0.036159743,0.011145223,-0.017541159,0.020731095,-0.006834876,-0.0130799785,-0.043152716,0.040643398,-0.03291905,-0.0012331009,-0.0240075,0.012069367,-0.020818328,0.0018781796,-0.02012304,0.032480504,0.013268445,0.04662839,-0.04685099,0.010028899,0.019735765,-0.030701125,-0.014519371,-0.0046511665,0.020801675,-0.035774052,-0.013565075,-0.020601058
sorux,0.04393773,0.008008204,-0.03729557,-0.036430407,0.030213777,0.024264801,0.044372175,-0.01629294,-0.018093776,0.04772086,-0.029652,-0.0005974546,0.03687117,0.010348938,0.017429855,0.040855553,-0.007498026,-0.011792541,-0.038435638,0.047199015,0.011942826,-0.038127016,0.034816515,0.043556813,-0.025256766,0.032820668,-0.01671616,0.040542927,-0.0061182156,-0.025017833,-0.016041838,0.04939996
herbw,0.04623815,-0.043479156,-0.03894657,-0.010590993,-0.022693073,-0.008194316,-0.0022944696,-0.035817135,-0.022685159,0.021025624,6.276369e-05,0.0051137097,-0.008101724,-0.02065053,-0.025087869,-0.03916819,-0.023996605,0.0036951788,0.03246596,0.02048048,0.01593827,-0.03537078,-0.040701292,0.019580785,0.048477124,0.0076425187,0.020142142,0.023565028,-0.017782055,0.025421944,-0.03597535,-0.017956696
duedax,-0.04876964,0.012198985,-0.028011287,-0.018314518,0.025359187,-0.00552107,-0.008835934,-0.044265877,0.02059022,0.014246825,0.017471496,-0.023221612,-0.0173285,0.017003749,0.049277935,0.0109020695,0.03831439,0.015849318,-0.032763887,-0.035747014,-0.01898998,0.004549671,0.013570812,-0.0019287243,-0.022725571,0.003772676,-0.00029212236,0.019703839,-0.01715938,-0.0110627785,0.017005552,0.016980838
drakos,0.030937742,-0.031590737,-0.028706158,-0.031992376,0.033813324,-0.015309084,0.012765113,-0.04264585,0.019768026,5.301088e-05,0.022216331,-0.023337139,-0.007341694,0.021562729,-0.030241383,0.016783502,0.018702213,0.012492944,-0.020500124,-0.043810308,0.022824872,0.009966351,-0.049270965,0.036142897,0.027580287,-0.02779901,-0.044262793,0.041822817,-0.04744742,0.02154943,0.03936911,0.011521339
gyixx,0.014757607,-0.0069689974,0.02534816,0.037905518,0.025777165,-0.0055344217,-0.020491445,0.026779894,0.0086025,0.024227668,-0.023327291,0.018382158,0.02880356,-0.011154782,0.03169335,0.048433986,-0.016151119,-0.02591381,0.03519914,0.040285733,-0.028259719,-0.012447022,0.014757503,-0.030095173,0.045681287,0.017705012,0.040066186,0.03687085,-0.04505358,0.0018427,0.008571468,-0.046709515
sovax,-0.018972874,0.036151554,-0.012261044,0.024057064,0.024899688,0.02003846,-0.036965527,0.021372546,0.03852663,0.02883884,0.023481134,0.046968807,0.018958416,0.012157131,-0.025991047,-0.0017721057,0.03894085,-0.026940322,-0.015936386,0.048511807,0.025093976,0.04229423,-0.013822902,0.03089602,0.016574036,-0.03822733,0.007011771,0.04609554,0.010855924,0.004948914,0.028327677,0.013312366
blastix,0.06437391,0.05826666,-0.08041815,-0.046928156,-0.041171204,-0.0102524385,-0.04342995,-0.033463977,-0.01975665,-0.04491354,0.0012967102,-0.015879046,-0.035870552,0.029650535,-0.01575949,-0.02305894,-0.016603004,0.015249256,-0.02571845,-0.048276376,0.03409156,-0.011485327,0.027303312,-0.034906138,0.010267008,-0.044848036,0.0074427836,-0.0342352,0.008468889,0.036069844,-0.005767595,0.027706672
ueon,0.011832438,-0.024315704,0.03591002,-0.03922832,-0.032908607,0.01842967,0.048368525,0.007674776,0.011966504,0.017144565,0.0475461,-0.009283613,0.026658658,0.03396577,0.035056558,0.012921359,-0.01056733,-0.009385087,0.018618573,0.03164165,0.04978845,0.00094765425,-0.015398134,9.971857e-05,0.03261217,-0.0038155802,-0.018062495,0.0061933175,-0.022049999,-0.017940603,-0.027517593,0.02765229
truztix,0.033043694,-0.0041890964,-0.026058424,-0.03288068,0.003890276,0.0061507337,-0.04135231,-0.0491452,0.038516235,-0.04027014,-0.00042278692,0.020976711,-0.028240025,0.04666609,0.04294238,-0.039179612,-0.019603718,0.048343826,-0.013421774,0.03643084,0.03995795,-0.01593598,-0.012676656,0.011808537,-0.02089237,-0.029698981,-0.015202247,-0.005899202,-0.02216195,0.03283867,-0.0019772425,0.03595564
astrrn,0.0049069477,-0.0056534316,-0.08753871,0.025257733,0.013253663,0.020273376,0.003349401,-0.04515294,-0.0106198415,-0.034197915,-0.04725622,-0.03755393,0.03569107,-0.016313352,0.044916894,-0.028162861,-0.03865988,-0.034046043,0.03570989,0.0066750757,-0.009228457,-0.003425967,-0.006427586,0.012516152,-0.04983616,-0.015407167,0.04101043,0.038728844,-0.013519298,0.04325259,0.037931394,0.039731834
xeno,-0.0096714385,0.0479529,-0.04867479,0.03293637,-0.009697616,0.030364249,0.0005241409,-0.01144401,-0.03957076,0.009447325,0.019853007,0.022114228,-0.00214722,-0.025681568,-0.026594425,-0.005606629,-0.0471218,0.024988953,0.0083942525,-0.0251207,0.026091788,-0.003582824,0.042686198,-0.045924164,-0.024271583,-0.036659777,-0.025453305,0.045999717,0.032203604,-0.045760155,-0.045865215,0.020043824
cycvopix,0.00979396,0.025295977,-0.027752792,-0.023474896,-0.003987659,-0.010863423,0.0010818131,-0.032638088,0.028077248,0.019706298,0.010668814,-0.019371629,-0.014101993,0.021467302,-0.035531223,0.005049683,0.028717253,-0.042421438,-0.027368188,0.04934429,-0.022210574,0.01848993,0.0013087615,0.03041308,-0.010211337,0.027797613,0.0068455115,-0.043866683,0.013111223,0.015301798,-0.023056805,0.0022617206
mephyr,-0.01070397,-0.04744767,0.044955123,-0.014721967,0.045952294,0.03839178,-0.034902047,0.0007892139,0.017285977,-0.0021785125,-0.026488174,-0.030469537,0.033631984,-0.0158123,0.02874634,0.015749965,0.04548725,0.049858097,0.040393483,0.018378828,0.01804315,-0.025499344,-0.045022916,-0.03449744,0.03733549,-0.047194388,0.025973927,0.031939115,0.01972295,0.031065192,0.02094667,-0.018520452
mythox,0.021836463,0.0359636,-0.00682237,-0.026447022,-0.03660636,0.037815575,0.0194224,-0.014312424,0.0058633685,0.036659423,-0.035952605,-0.047721434,0.0008623116,0.0342463,0.045983303,0.029758368,0.009066939,0.048135053,0.024021212,0.009477187,-0.019372893,-0.049878944,0.008895658,-0.020450462,0.0030685551,0.01737943,0.04687326,0.00844302,0.03149737,-0.032364845,-0.014602341,0.036624562
lenox,-0.019842684,-0.013212312,0.011016943,-0.027077341,0.017789785,0.023175884,-0.012134947,0.013630126,0.02456012,-0.0286937,-0.005516004,-0.015736617,-0.02725966,-0.04580295,-0.0049127936,-0.004729163,-0.022336949,-0.035850726,0.0006153211,-0.023045374,0.0433808,-0.040217496,-0.020748222,0.026896846,0.0034240857,-0.024209583,-0.020631135,-0.018664539,0.0011635534,0.013789427,-0.04803331,-0.007163264
